<?xml version="1.0"?>
<opencv_storage>
<opencv_ml_svm>
  <format>3</format>
  <svmType>C_SVC</svmType>
  <kernel>
    <type>LINEAR</type></kernel>
  <C>1.</C>
  <term_criteria><epsilon>1.1920928955078125e-07</epsilon>
    <iterations>1000</iterations></term_criteria>
  <var_count>128</var_count>
  <class_count>2</class_count>
  <class_labels type_id="opencv-matrix">
    <rows>2</rows>
    <cols>1</cols>
    <dt>i</dt>
    <data>
      1 2</data></class_labels>
  <sv_total>1</sv_total>
  <support_vectors>
    <_>
      -1.15324809e-04 9.25767701e-04 1.56507609e-04 4.41689685e-04
      7.60450435e-04 9.77036325e-05 4.55479225e-04 -1.75644294e-04
      3.91847687e-04 5.46607422e-04 1.53140747e-04 -5.48111333e-04
      -3.02758068e-04 -2.64603616e-04 5.80219144e-04 -2.28845471e-04
      4.57030226e-04 -3.42619576e-04 4.11230081e-04 7.33217166e-05
      -3.52364761e-04 1.03680060e-04 -9.99576994e-04 -3.76572338e-04
      -1.78129412e-05 1.52225199e-03 -1.43357101e-04 -9.14538919e-04
      6.75563497e-05 1.96896013e-04 1.02922888e-04 2.28121295e-04
      5.35283703e-04 2.30949765e-04 8.01724324e-04 1.12324359e-03
      1.25290349e-03 4.44867503e-04 -2.72462901e-04 -3.19619692e-04
      9.84321232e-04 7.99895148e-04 -1.08946452e-03 1.05520210e-03
      1.12641392e-04 -5.41238289e-04 9.92908172e-05 1.02234620e-03
      4.34405774e-05 -1.96892346e-04 1.08447298e-03 -9.21852770e-04
      -1.17852376e-03 -1.67078967e-03 -6.42407220e-04 -2.83211906e-04
      -4.90063452e-04 -3.74791707e-04 -2.65402923e-04 1.42060511e-03
      -4.21949007e-05 -4.28004802e-04 7.98574416e-04 3.78738041e-04
      8.92291078e-04 -3.81115533e-04 8.02634808e-04 1.20252786e-04
      3.51762719e-04 -1.76481938e-03 3.29004179e-05 -3.45394801e-05
      1.43432734e-03 5.72286954e-04 8.27335825e-05 4.17012081e-04
      1.11200311e-03 -2.89393502e-04 2.08561702e-04 7.42115313e-04
      1.07366673e-03 -4.23300953e-05 -8.66551942e-04 -4.15506249e-04
      4.45657817e-04 -8.07327102e-04 1.27529187e-04 -1.61233256e-04
      8.35276966e-04 7.17638759e-04 3.56927136e-04 1.20904342e-05
      -1.47684384e-03 -3.64621010e-05 -6.81114398e-05 6.49051299e-06
      4.55393281e-04 3.65541314e-06 -7.02937468e-05 5.84354973e-04
      -5.83515619e-04 -1.34028902e-03 9.85916340e-05 6.57964789e-04
      9.53700946e-05 2.83473782e-04 -5.16103639e-04 9.78732569e-05
      -3.37475300e-04 -1.13712849e-04 -1.68836315e-03 9.76139505e-04
      -8.85443704e-04 9.95857525e-04 -3.16145393e-04 3.58093494e-05
      -9.27601475e-04 4.12667781e-04 -2.74200167e-04 -4.93345833e-05
      6.21952931e-04 5.58780623e-04 7.65871315e-04 -1.10981043e-03
      -8.01214017e-04 3.45692883e-04 2.99236217e-05 5.22994203e-04</_></support_vectors>
  <uncompressed_sv_total>1178</uncompressed_sv_total>
  <uncompressed_support_vectors>
    <_>
      46. 32. 0. 1. 1. 0. 0. 0. 162. 161. 0. 0. 0. 0. 0. 2. 93. 53. 0.
      0. 0. 0. 0. 1. 1. 1. 1. 0. 0. 0. 0. 0. 45. 10. 1. 2. 3. 0. 0. 9.
      162. 55. 0. 0. 0. 0. 0. 85. 162. 23. 0. 0. 0. 0. 0. 39. 2. 0. 0.
      0. 0. 0. 0. 1. 56. 28. 15. 26. 3. 0. 0. 5. 162. 79. 1. 0. 0. 0. 0.
      49. 152. 31. 0. 0. 0. 0. 0. 16. 0. 0. 0. 0. 0. 0. 0. 0. 69. 5. 4.
      14. 10. 3. 4. 69. 162. 4. 0. 0. 0. 0. 0. 162. 47. 1. 0. 0. 0. 0.
      0. 25. 0. 0. 0. 0. 0. 0. 0. 0.</_>
    <_>
      0. 0. 0. 48. 38. 5. 0. 0. 2. 1. 37. 132. 81. 27. 12. 19. 26. 4.
      63. 113. 3. 2. 12. 132. 1. 0. 0. 0. 0. 0. 1. 13. 0. 0. 0. 14. 74.
      48. 0. 0. 14. 0. 0. 46. 132. 132. 39. 41. 132. 27. 0. 4. 8. 16.
      26. 132. 21. 11. 0. 0. 0. 0. 1. 21. 0. 0. 0. 74. 48. 4. 0. 0. 9.
      1. 0. 98. 132. 24. 6. 6. 99. 119. 1. 1. 13. 8. 6. 9. 40. 78. 1. 0.
      0. 0. 0. 0. 1. 0. 0. 124. 61. 0. 0. 1. 10. 0. 1. 61. 26. 1. 2. 13.
      44. 24. 1. 9. 23. 3. 2. 6. 121. 28. 0. 1. 1. 0. 0. 10.</_>
    <_>
      0. 0. 0. 0. 0. 0. 0. 0. 15. 70. 23. 0. 0. 0. 0. 0. 9. 123. 140. 4.
      0. 0. 0. 0. 0. 35. 140. 3. 0. 0. 0. 0. 5. 1. 0. 0. 1. 12. 4. 3.
      140. 52. 3. 0. 1. 10. 6. 19. 102. 63. 44. 3. 2. 0. 0. 15. 3. 37.
      77. 15. 7. 0. 0. 1. 2. 0. 0. 0. 140. 106. 4. 2. 99. 74. 0. 0. 96.
      56. 8. 14. 80. 140. 3. 4. 8. 0. 0. 4. 7. 23. 14. 17. 39. 20. 2. 2.
      0. 0. 0. 0. 140. 81. 0. 0. 31. 25. 1. 3. 140. 34. 0. 6. 107. 61.
      1. 0. 0. 0. 0. 7. 33. 13. 1. 1. 4. 13. 9. 8.</_>
    <_>
      2. 0. 0. 0. 3. 4. 1. 2. 62. 43. 0. 0. 1. 2. 1. 18. 38. 143. 43. 0.
      0. 0. 0. 3. 0. 126. 41. 0. 0. 0. 0. 0. 12. 0. 0. 64. 143. 27. 3.
      9. 143. 20. 0. 5. 19. 9. 3. 73. 51. 143. 37. 10. 1. 0. 0. 15. 2.
      143. 48. 0. 0. 0. 0. 0. 27. 2. 0. 114. 143. 1. 0. 10. 143. 14. 1.
      7. 7. 1. 1. 41. 40. 24. 12. 22. 13. 8. 8. 17. 36. 77. 8. 1. 1. 1.
      5. 30. 45. 11. 0. 12. 143. 21. 0. 3. 127. 19. 0. 0. 2. 1. 1. 30.
      31. 1. 0. 0. 2. 6. 19. 48. 11. 0. 0. 0. 0. 3. 11. 56.</_>
    <_>
      0. 0. 0. 132. 161. 0. 0. 0. 13. 2. 0. 98. 132. 5. 1. 15. 83. 39.
      1. 0. 2. 2. 1. 26. 56. 17. 0. 1. 1. 0. 1. 16. 2. 1. 0. 161. 161.
      0. 0. 0. 48. 5. 0. 52. 67. 3. 6. 16. 75. 21. 1. 0. 1. 7. 18. 29.
      88. 34. 4. 2. 1. 0. 0. 6. 4. 2. 0. 39. 161. 0. 0. 0. 105. 18. 1.
      10. 56. 0. 2. 5. 62. 2. 0. 0. 0. 1. 8. 43. 54. 6. 1. 0. 1. 1. 2.
      34. 2. 1. 0. 5. 161. 26. 0. 0. 103. 24. 0. 2. 54. 5. 0. 2. 74. 15.
      0. 0. 0. 0. 0. 29. 35. 4. 0. 0. 1. 1. 0. 19.</_>
    <_>
      0. 0. 0. 0. 0. 0. 0. 0. 16. 77. 18. 0. 0. 0. 0. 0. 8. 143. 143. 0.
      0. 0. 0. 0. 0. 51. 143. 0. 0. 0. 0. 0. 9. 1. 0. 0. 1. 9. 4. 5.
      143. 57. 3. 0. 0. 5. 3. 22. 99. 79. 56. 2. 2. 0. 0. 11. 3. 46.
      103. 14. 7. 0. 0. 1. 6. 0. 0. 0. 143. 109. 7. 6. 126. 68. 0. 0.
      42. 31. 8. 22. 85. 129. 3. 3. 6. 0. 0. 5. 5. 18. 14. 20. 43. 15.
      1. 1. 1. 1. 0. 1. 143. 74. 0. 0. 48. 29. 1. 2. 94. 11. 0. 12. 99.
      51. 1. 0. 0. 0. 0. 12. 28. 11. 2. 1. 5. 16. 9. 7.</_>
    <_>
      6. 159. 19. 0. 0. 3. 1. 0. 4. 159. 43. 0. 0. 0. 0. 0. 12. 133. 6.
      0. 0. 0. 0. 0. 1. 3. 0. 0. 0. 0. 0. 0. 0. 23. 16. 3. 12. 36. 2. 0.
      37. 159. 74. 7. 16. 22. 1. 5. 159. 159. 10. 0. 0. 1. 1. 11. 29.
      14. 0. 0. 0. 0. 0. 0. 0. 2. 4. 1. 7. 23. 92. 5. 54. 14. 4. 2. 15.
      60. 82. 81. 159. 36. 1. 0. 0. 2. 9. 122. 36. 4. 0. 0. 0. 0. 0. 2.
      0. 0. 0. 0. 0. 30. 159. 5. 6. 0. 0. 0. 0. 27. 67. 18. 17. 0. 0. 0.
      0. 0. 1. 14. 0. 0. 0. 0. 0. 0. 0. 0.</_>
    <_>
      5. 0. 0. 6. 2. 7. 64. 146. 146. 0. 0. 0. 0. 1. 39. 146. 98. 0. 0.
      0. 0. 0. 0. 126. 0. 0. 0. 0. 0. 0. 0. 0. 24. 0. 0. 0. 27. 20. 21.
      46. 146. 30. 0. 0. 0. 0. 4. 86. 123. 38. 3. 0. 0. 0. 0. 27. 0. 2.
      0. 0. 0. 0. 0. 0. 9. 0. 0. 1. 22. 11. 46. 26. 127. 146. 21. 1. 3.
      4. 12. 13. 36. 146. 43. 0. 0. 0. 0. 0. 8. 55. 1. 0. 0. 0. 0. 0. 3.
      0. 0. 0. 4. 8. 12. 9. 1. 25. 11. 3. 35. 19. 3. 0. 50. 146. 14. 2.
      7. 3. 0. 0. 74. 121. 0. 0. 0. 0. 0. 0.</_>
    <_>
      10. 0. 0. 5. 20. 8. 12. 47. 150. 59. 0. 0. 0. 0. 1. 82. 87. 150.
      19. 0. 0. 0. 0. 3. 4. 141. 9. 0. 0. 0. 0. 0. 37. 4. 0. 27. 30. 11.
      23. 83. 150. 27. 1. 1. 0. 2. 5. 68. 49. 150. 30. 16. 0. 0. 0. 8.
      42. 150. 10. 1. 0. 0. 0. 0. 88. 1. 0. 3. 1. 6. 24. 54. 91. 11. 3.
      4. 3. 5. 22. 64. 28. 39. 23. 43. 34. 9. 3. 8. 90. 150. 7. 3. 2. 1.
      1. 11. 116. 13. 0. 0. 0. 0. 4. 29. 24. 3. 0. 0. 3. 6. 11. 53. 6.
      0. 0. 1. 19. 27. 42. 33. 34. 13. 0. 0. 1. 1. 19. 53.</_>
    <_>
      0. 0. 0. 19. 23. 0. 0. 0. 0. 0. 0. 11. 13. 0. 1. 2. 11. 4. 0. 0.
      0. 0. 1. 7. 12. 31. 3. 0. 0. 0. 0. 0. 1. 1. 4. 153. 153. 0. 0. 0.
      46. 8. 12. 120. 47. 1. 9. 39. 46. 22. 1. 0. 0. 2. 39. 67. 32. 153.
      70. 0. 0. 3. 4. 3. 6. 2. 2. 96. 153. 114. 5. 3. 153. 21. 4. 23.
      28. 34. 12. 27. 65. 19. 0. 0. 0. 4. 17. 17. 2. 16. 14. 0. 0. 22.
      13. 1. 0. 0. 0. 0. 153. 153. 4. 1. 39. 8. 0. 0. 30. 142. 20. 11.
      71. 20. 0. 0. 0. 3. 3. 4. 9. 2. 0. 0. 0. 9. 4. 2.</_>
    <_>
      46. 0. 0. 0. 10. 2. 0. 1. 203. 3. 0. 0. 0. 0. 0. 3. 134. 1. 0. 0.
      0. 0. 0. 3. 1. 0. 0. 0. 0. 0. 0. 1. 55. 2. 0. 1. 12. 1. 0. 1. 203.
      14. 0. 0. 1. 0. 0. 4. 174. 4. 0. 0. 0. 0. 0. 4. 1. 0. 0. 0. 0. 0.
      0. 1. 59. 1. 0. 2. 9. 0. 0. 8. 203. 0. 0. 0. 0. 0. 0. 63. 147. 0.
      0. 0. 0. 0. 0. 21. 1. 0. 0. 0. 0. 0. 0. 0. 68. 6. 1. 1. 3. 0. 0.
      7. 203. 0. 0. 0. 0. 0. 0. 38. 89. 0. 0. 0. 0. 0. 0. 9. 0. 0. 0. 0.
      0. 0. 0. 0.</_>
    <_>
      0. 0. 29. 133. 34. 0. 0. 0. 3. 5. 133. 133. 5. 0. 0. 1. 10. 78.
      58. 27. 2. 0. 1. 4. 2. 115. 104. 0. 0. 0. 0. 0. 3. 1. 12. 133.
      133. 3. 0. 0. 88. 15. 64. 95. 14. 1. 0. 28. 33. 21. 20. 3. 0. 4.
      18. 38. 0. 45. 48. 0. 0. 12. 19. 1. 5. 1. 1. 28. 133. 124. 7. 3.
      122. 18. 1. 5. 14. 35. 14. 18. 61. 28. 0. 0. 0. 1. 3. 5. 4. 2. 0.
      0. 0. 9. 9. 1. 0. 0. 0. 0. 129. 133. 3. 0. 21. 6. 0. 0. 24. 103.
      16. 7. 58. 15. 0. 0. 0. 3. 3. 4. 11. 2. 0. 0. 0. 1. 1. 3.</_>
    <_>
      42. 22. 2. 5. 3. 0. 0. 0. 157. 74. 0. 0. 0. 0. 0. 2. 157. 34. 4.
      0. 0. 0. 0. 2. 4. 4. 12. 4. 0. 0. 0. 0. 48. 5. 1. 2. 4. 9. 11. 20.
      157. 37. 11. 1. 0. 0. 1. 42. 138. 55. 157. 23. 0. 0. 0. 3. 1. 10.
      157. 49. 0. 0. 0. 0. 26. 6. 0. 0. 0. 7. 24. 21. 120. 102. 77. 11.
      0. 0. 1. 20. 12. 30. 157. 93. 0. 0. 0. 0. 0. 7. 157. 51. 0. 0. 0.
      0. 1. 3. 3. 4. 0. 1. 2. 1. 2. 18. 31. 5. 0. 0. 0. 0. 0. 1. 35. 21.
      1. 0. 0. 0. 0. 0. 18. 10. 1. 1. 0. 0.</_>
    <_>
      35. 0. 0. 1. 1. 0. 0. 24. 3. 2. 6. 29. 11. 0. 1. 5. 21. 21. 12.
      14. 2. 0. 0. 1. 26. 3. 0. 0. 0. 0. 0. 23. 43. 3. 1. 6. 8. 0. 0.
      13. 8. 7. 10. 80. 72. 9. 4. 4. 113. 33. 14. 21. 7. 2. 4. 26. 76.
      1. 0. 0. 0. 0. 0. 160. 20. 23. 3. 3. 6. 2. 0. 2. 6. 2. 1. 9. 41.
      40. 56. 30. 64. 2. 0. 1. 3. 7. 72. 160. 79. 0. 0. 0. 0. 0. 6. 160.
      26. 21. 1. 0. 0. 0. 39. 83. 5. 1. 0. 0. 0. 1. 146. 160. 5. 0. 0.
      0. 0. 0. 110. 160. 35. 0. 0. 0. 0. 0. 11. 160.</_>
    <_>
      0. 3. 13. 7. 4. 1. 0. 0. 7. 38. 25. 3. 1. 0. 0. 0. 129. 148. 5. 0.
      0. 0. 0. 0. 148. 148. 0. 0. 0. 0. 0. 0. 1. 2. 3. 6. 21. 21. 1. 0.
      3. 37. 56. 20. 35. 34. 3. 2. 125. 148. 30. 1. 1. 2. 3. 11. 148.
      148. 0. 0. 0. 0. 0. 1. 4. 27. 2. 0. 5. 17. 1. 0. 3. 5. 4. 3. 18.
      93. 29. 11. 106. 24. 2. 1. 1. 11. 24. 52. 148. 67. 0. 0. 0. 0. 0.
      8. 1. 51. 14. 0. 0. 13. 16. 0. 0. 17. 24. 6. 2. 6. 4. 1. 47. 19.
      16. 4. 0. 1. 3. 7. 148. 21. 0. 0. 0. 0. 0. 71.</_>
    <_>
      0. 0. 0. 144. 43. 0. 0. 0. 0. 0. 22. 153. 58. 0. 0. 0. 0. 2. 21.
      110. 25. 10. 2. 0. 15. 4. 0. 3. 9. 39. 10. 2. 0. 0. 0. 153. 153.
      1. 0. 0. 3. 8. 37. 153. 96. 8. 0. 1. 51. 45. 38. 22. 6. 4. 3. 5.
      10. 3. 0. 0. 28. 23. 5. 2. 0. 0. 0. 153. 153. 3. 0. 0. 6. 3. 3.
      29. 114. 67. 9. 9. 97. 12. 3. 3. 8. 18. 12. 49. 17. 1. 0. 3. 38.
      5. 0. 3. 0. 0. 0. 47. 153. 1. 0. 0. 0. 0. 0. 3. 26. 32. 7. 4. 17.
      1. 0. 0. 2. 10. 10. 24. 4. 1. 0. 4. 24. 3. 0. 1.</_>
    <_>
      0. 1. 2. 10. 144. 11. 0. 0. 0. 10. 38. 29. 3. 0. 0. 0. 4. 50. 33.
      4. 0. 0. 0. 0. 5. 9. 1. 0. 2. 2. 0. 0. 0. 0. 0. 13. 144. 45. 0. 0.
      8. 24. 49. 125. 119. 7. 1. 2. 123. 138. 45. 21. 9. 2. 1. 10. 43.
      19. 0. 0. 1. 1. 0. 1. 0. 0. 0. 3. 144. 72. 0. 0. 9. 3. 1. 17. 141.
      90. 44. 25. 130. 16. 1. 3. 9. 17. 40. 124. 49. 14. 0. 0. 0. 0. 0.
      8. 0. 0. 0. 1. 144. 141. 0. 0. 7. 8. 1. 2. 38. 25. 22. 11. 12. 5.
      0. 0. 0. 2. 18. 41. 9. 13. 0. 0. 0. 0. 0. 3.</_>
    <_>
      0. 0. 0. 0. 0. 0. 0. 0. 0. 26. 29. 0. 0. 0. 0. 0. 0. 27. 13. 0. 0.
      0. 0. 0. 0. 1. 0. 0. 0. 0. 0. 0. 0. 0. 1. 0. 0. 4. 0. 0. 9. 127.
      131. 5. 26. 40. 2. 1. 110. 152. 69. 1. 4. 2. 0. 7. 25. 18. 0. 0.
      0. 0. 0. 1. 0. 0. 0. 2. 16. 14. 1. 0. 41. 21. 8. 21. 152. 123. 3.
      7. 152. 126. 6. 4. 34. 11. 0. 35. 59. 22. 0. 0. 0. 0. 0. 6. 0. 0.
      0. 12. 47. 2. 0. 0. 7. 12. 1. 65. 152. 15. 0. 0. 125. 152. 3. 9.
      50. 8. 0. 0. 58. 147. 0. 0. 0. 0. 0. 0.</_>
    <_>
      0. 0. 0. 0. 0. 0. 0. 0. 0. 0. 7. 123. 13. 0. 0. 0. 5. 0. 11. 146.
      18. 0. 2. 47. 10. 0. 0. 2. 1. 0. 4. 73. 0. 0. 0. 1. 7. 2. 0. 0.
      19. 1. 6. 155. 155. 16. 0. 3. 155. 6. 13. 121. 49. 3. 6. 155. 39.
      1. 0. 1. 0. 0. 18. 155. 0. 0. 0. 0. 15. 5. 0. 0. 28. 1. 0. 10.
      155. 80. 0. 3. 155. 28. 0. 3. 64. 23. 0. 33. 97. 6. 0. 0. 0. 0. 0.
      13. 0. 0. 0. 0. 1. 0. 0. 0. 3. 0. 0. 1. 21. 2. 0. 1. 71. 1. 0. 0.
      7. 1. 0. 10. 22. 0. 0. 0. 0. 0. 0. 3.</_>
    <_>
      0. 0. 0. 0. 0. 0. 0. 0. 7. 19. 36. 3. 0. 0. 0. 1. 2. 10. 145. 103.
      0. 0. 5. 7. 0. 0. 62. 74. 1. 3. 28. 3. 5. 1. 0. 0. 17. 17. 1. 1.
      98. 32. 8. 1. 9. 8. 1. 27. 30. 19. 14. 4. 0. 0. 11. 49. 2. 3. 1.
      1. 0. 1. 36. 14. 2. 1. 0. 0. 145. 145. 9. 0. 57. 70. 2. 0. 54. 98.
      73. 12. 23. 92. 18. 0. 0. 4. 34. 10. 2. 34. 22. 0. 0. 1. 5. 2. 0.
      0. 0. 0. 35. 145. 52. 0. 3. 3. 0. 0. 5. 145. 145. 6. 4. 11. 2. 0.
      0. 122. 145. 6. 1. 9. 9. 0. 0. 83. 98. 1.</_>
    <_>
      0. 0. 0. 1. 6. 2. 0. 0. 81. 0. 0. 0. 2. 4. 2. 31. 176. 1. 0. 0. 0.
      0. 0. 159. 50. 0. 0. 0. 0. 0. 0. 59. 0. 0. 0. 0. 3. 9. 1. 0. 145.
      9. 0. 0. 2. 3. 0. 4. 176. 11. 0. 0. 0. 0. 0. 10. 78. 1. 0. 0. 0.
      0. 0. 4. 0. 0. 0. 0. 4. 5. 0. 0. 132. 6. 0. 0. 3. 4. 2. 13. 176.
      50. 0. 0. 0. 0. 0. 9. 69. 23. 0. 0. 0. 0. 0. 0. 0. 0. 0. 0. 1. 1.
      0. 0. 49. 23. 0. 0. 0. 1. 1. 2. 176. 176. 0. 0. 0. 0. 0. 0. 70.
      89. 0. 0. 0. 0. 0. 0.</_>
    <_>
      0. 0. 0. 0. 4. 1. 0. 0. 12. 4. 0. 0. 4. 2. 0. 11. 15. 48. 58. 0.
      0. 0. 3. 12. 0. 22. 154. 3. 0. 1. 6. 1. 1. 0. 0. 44. 154. 16. 0.
      0. 83. 6. 0. 21. 72. 10. 2. 61. 42. 15. 10. 0. 0. 0. 27. 77. 1. 1.
      20. 1. 0. 9. 49. 8. 1. 0. 0. 16. 154. 154. 22. 1. 76. 21. 0. 6.
      34. 154. 78. 16. 59. 63. 0. 0. 0. 10. 12. 12. 8. 15. 0. 0. 0. 3.
      11. 4. 0. 0. 0. 0. 7. 154. 25. 0. 2. 1. 0. 0. 1. 154. 92. 1. 11.
      25. 0. 0. 3. 154. 35. 2. 3. 39. 10. 0. 0. 12. 1. 0.</_>
    <_>
      0. 0. 0. 3. 4. 6. 1. 0. 0. 3. 20. 30. 1. 0. 1. 1. 68. 56. 20. 5.
      0. 0. 0. 0. 160. 153. 0. 0. 0. 0. 0. 0. 0. 0. 0. 11. 34. 12. 0. 0.
      8. 17. 40. 116. 82. 18. 3. 4. 152. 98. 37. 17. 4. 3. 2. 16. 160.
      95. 0. 0. 0. 0. 0. 3. 0. 1. 1. 3. 30. 16. 0. 0. 6. 2. 1. 10. 70.
      116. 52. 21. 117. 6. 1. 2. 3. 15. 43. 119. 160. 25. 0. 0. 0. 0. 0.
      17. 1. 1. 1. 0. 1. 4. 2. 2. 0. 0. 0. 0. 1. 21. 29. 6. 21. 1. 0. 0.
      0. 2. 18. 35. 160. 48. 0. 0. 0. 0. 0. 4.</_>
    <_>
      0. 0. 0. 11. 14. 0. 0. 0. 2. 18. 29. 16. 10. 0. 0. 1. 2. 22. 145.
      7. 0. 0. 3. 3. 0. 8. 145. 5. 0. 1. 7. 1. 1. 0. 1. 145. 145. 7. 0.
      0. 74. 18. 24. 82. 48. 3. 1. 21. 34. 9. 27. 2. 0. 0. 28. 49. 0. 0.
      16. 2. 0. 6. 52. 6. 1. 0. 0. 32. 145. 145. 20. 0. 88. 17. 1. 8.
      25. 142. 56. 15. 62. 45. 0. 0. 0. 4. 8. 13. 6. 9. 0. 0. 0. 2. 13.
      4. 0. 0. 0. 0. 7. 145. 30. 0. 4. 2. 0. 0. 1. 145. 85. 2. 13. 29.
      0. 0. 3. 130. 24. 2. 3. 36. 6. 0. 0. 5. 0. 0.</_>
    <_>
      9. 3. 2. 21. 31. 0. 0. 1. 165. 9. 1. 6. 9. 0. 0. 55. 147. 0. 0. 0.
      0. 0. 0. 49. 2. 0. 0. 0. 0. 0. 0. 1. 20. 12. 25. 92. 19. 0. 0. 0.
      165. 39. 6. 20. 4. 0. 0. 10. 165. 1. 0. 0. 0. 0. 0. 11. 1. 0. 0.
      0. 0. 0. 0. 0. 24. 4. 31. 56. 0. 2. 71. 74. 165. 7. 2. 6. 0. 0.
      38. 165. 134. 0. 0. 0. 0. 0. 0. 36. 1. 0. 0. 0. 0. 0. 0. 0. 1. 0.
      0. 0. 0. 0. 82. 83. 32. 0. 0. 0. 0. 0. 74. 165. 15. 0. 0. 0. 0. 0.
      0. 27. 0. 0. 0. 0. 0. 0. 0. 0.</_>
    <_>
      0. 0. 0. 0. 6. 1. 0. 0. 18. 15. 2. 0. 5. 1. 0. 6. 10. 34. 105. 11.
      0. 0. 6. 10. 0. 3. 141. 33. 0. 2. 18. 1. 2. 0. 0. 74. 141. 11. 0.
      0. 109. 9. 2. 23. 58. 5. 1. 42. 44. 10. 8. 1. 0. 0. 29. 67. 0. 0.
      3. 2. 0. 5. 58. 9. 2. 0. 0. 34. 141. 141. 29. 0. 97. 26. 0. 7. 22.
      141. 76. 12. 60. 66. 0. 0. 0. 5. 10. 12. 5. 18. 1. 0. 0. 2. 9. 4.
      0. 0. 0. 0. 5. 141. 38. 0. 4. 2. 0. 0. 0. 141. 141. 3. 8. 31. 0.
      0. 2. 141. 49. 3. 1. 39. 12. 0. 0. 14. 3. 0.</_>
    <_>
      3. 0. 0. 0. 0. 0. 0. 4. 6. 4. 12. 9. 0. 0. 0. 3. 133. 56. 11. 2.
      0. 0. 0. 0. 172. 57. 0. 0. 0. 0. 0. 0. 1. 0. 1. 8. 10. 3. 2. 1. 6.
      12. 39. 96. 45. 10. 2. 3. 172. 95. 39. 19. 3. 2. 2. 12. 172. 42.
      0. 0. 0. 0. 0. 1. 0. 0. 1. 3. 14. 9. 1. 0. 5. 2. 2. 16. 53. 84.
      40. 18. 172. 12. 2. 3. 3. 13. 33. 91. 172. 32. 0. 0. 0. 0. 0. 5.
      1. 0. 0. 0. 0. 1. 1. 2. 2. 0. 0. 0. 0. 12. 16. 11. 91. 3. 0. 0. 0.
      1. 11. 31. 172. 23. 0. 0. 0. 0. 0. 1.</_>
    <_>
      0. 1. 3. 10. 128. 29. 0. 0. 9. 49. 51. 38. 32. 1. 0. 0. 39. 95.
      15. 4. 22. 5. 0. 0. 1. 2. 0. 2. 112. 31. 0. 0. 0. 0. 0. 2. 128.
      73. 0. 0. 37. 14. 4. 11. 128. 38. 1. 2. 128. 46. 2. 2. 18. 6. 1.
      6. 12. 2. 0. 1. 111. 32. 0. 1. 0. 0. 0. 0. 128. 122. 0. 0. 17. 0.
      0. 0. 92. 116. 11. 12. 128. 1. 0. 0. 9. 19. 10. 42. 21. 0. 0. 0.
      92. 37. 0. 3. 0. 0. 0. 0. 128. 127. 0. 0. 1. 0. 0. 0. 65. 105. 12.
      6. 50. 0. 0. 0. 2. 10. 13. 38. 12. 0. 0. 0. 50. 28. 0. 3.</_>
    <_>
      82. 49. 0. 0. 54. 23. 0. 0. 95. 46. 0. 1. 1. 0. 0. 0. 24. 13. 3.
      14. 14. 2. 0. 0. 130. 60. 1. 2. 1. 0. 0. 0. 107. 17. 0. 0. 130.
      39. 0. 3. 130. 19. 0. 6. 5. 0. 0. 1. 31. 20. 14. 65. 30. 0. 0. 0.
      130. 71. 7. 6. 0. 0. 0. 0. 90. 4. 0. 2. 130. 20. 0. 2. 130. 5. 0.
      8. 21. 2. 0. 10. 42. 14. 6. 52. 98. 9. 1. 5. 130. 30. 2. 3. 2. 0.
      0. 10. 69. 17. 0. 8. 130. 7. 0. 1. 130. 13. 0. 0. 11. 12. 1. 11.
      21. 1. 0. 2. 43. 64. 20. 17. 130. 0. 0. 0. 1. 4. 8. 41.</_>
    <_>
      0. 93. 116. 0. 0. 0. 0. 0. 0. 52. 80. 0. 0. 0. 0. 0. 0. 30. 19. 0.
      0. 0. 0. 0. 0. 3. 0. 0. 0. 0. 0. 0. 1. 148. 148. 0. 0. 1. 1. 0.
      16. 148. 148. 0. 0. 0. 0. 0. 94. 148. 60. 0. 0. 0. 0. 1. 19. 20.
      0. 0. 0. 0. 0. 0. 3. 22. 24. 1. 12. 18. 2. 0. 140. 50. 59. 1. 0.
      0. 0. 25. 148. 67. 5. 0. 0. 0. 0. 40. 56. 7. 0. 0. 0. 0. 0. 2. 3.
      1. 0. 1. 44. 21. 0. 0. 132. 33. 0. 1. 2. 1. 0. 8. 148. 64. 0. 0.
      0. 0. 0. 8. 11. 4. 0. 0. 0. 0. 0. 0.</_>
    <_>
      0. 0. 0. 0. 138. 64. 0. 0. 75. 8. 0. 0. 110. 49. 3. 13. 138. 29.
      0. 0. 0. 1. 1. 11. 36. 11. 1. 0. 0. 0. 0. 0. 0. 0. 0. 0. 138. 72.
      0. 0. 48. 5. 0. 0. 99. 121. 10. 15. 138. 39. 0. 0. 1. 5. 4. 22.
      50. 23. 2. 0. 0. 0. 0. 0. 0. 0. 0. 0. 138. 129. 0. 0. 7. 0. 0. 0.
      37. 133. 37. 17. 115. 8. 0. 0. 1. 14. 25. 60. 39. 25. 3. 0. 0. 0.
      0. 2. 0. 0. 0. 0. 138. 138. 0. 0. 0. 0. 0. 0. 33. 61. 5. 1. 21.
      16. 0. 0. 3. 16. 6. 6. 14. 29. 4. 0. 0. 0. 0. 1.</_>
    <_>
      3. 2. 0. 0. 1. 2. 0. 0. 2. 0. 0. 0. 5. 12. 9. 12. 13. 0. 0. 0. 3.
      7. 49. 138. 5. 0. 0. 0. 0. 1. 138. 138. 6. 9. 0. 0. 0. 0. 0. 0.
      58. 5. 0. 0. 0. 1. 3. 24. 138. 7. 0. 0. 0. 0. 5. 138. 94. 9. 0. 0.
      0. 0. 30. 138. 1. 10. 3. 2. 3. 2. 0. 0. 63. 38. 2. 0. 0. 0. 0. 1.
      138. 138. 2. 0. 0. 0. 0. 13. 76. 138. 12. 0. 0. 0. 0. 8. 0. 2. 1.
      2. 12. 9. 0. 0. 13. 32. 1. 0. 2. 1. 0. 0. 45. 138. 1. 0. 0. 0. 0.
      0. 138. 138. 4. 0. 0. 0. 0. 0.</_>
    <_>
      0. 0. 0. 0. 48. 12. 0. 0. 12. 1. 0. 2. 82. 19. 1. 2. 98. 7. 0. 0.
      3. 1. 0. 7. 145. 18. 0. 0. 0. 0. 0. 41. 0. 0. 0. 0. 54. 11. 0. 0.
      8. 5. 1. 3. 125. 21. 0. 1. 130. 24. 1. 1. 9. 2. 0. 9. 145. 15. 0.
      0. 0. 0. 0. 43. 0. 0. 0. 9. 49. 2. 0. 0. 4. 2. 1. 18. 115. 18. 1.
      3. 141. 8. 2. 3. 9. 5. 2. 35. 145. 7. 0. 0. 0. 0. 0. 135. 0. 0. 0.
      19. 37. 0. 0. 0. 11. 4. 3. 42. 88. 1. 0. 1. 145. 10. 3. 7. 5. 0.
      0. 91. 145. 0. 0. 0. 0. 0. 0. 145.</_>
    <_>
      7. 1. 0. 0. 0. 0. 0. 4. 75. 42. 2. 0. 0. 0. 0. 3. 172. 154. 0. 0.
      0. 0. 0. 0. 76. 35. 0. 0. 0. 0. 0. 0. 4. 1. 0. 1. 2. 1. 1. 5. 44.
      35. 12. 14. 10. 4. 1. 3. 172. 86. 2. 1. 0. 0. 0. 13. 172. 17. 0.
      0. 0. 0. 0. 7. 1. 2. 1. 0. 2. 2. 1. 3. 47. 3. 1. 3. 10. 16. 13.
      26. 172. 24. 0. 0. 0. 1. 3. 42. 172. 15. 0. 0. 0. 0. 0. 6. 3. 3.
      1. 0. 0. 0. 0. 0. 53. 2. 0. 0. 0. 0. 1. 8. 172. 19. 0. 0. 0. 0. 0.
      19. 156. 12. 0. 0. 0. 0. 0. 8.</_>
    <_>
      0. 0. 0. 0. 5. 28. 1. 0. 1. 0. 0. 0. 9. 35. 9. 11. 9. 0. 0. 0. 1.
      4. 21. 160. 16. 0. 0. 0. 0. 0. 10. 160. 0. 1. 0. 0. 1. 19. 2. 0.
      41. 1. 0. 0. 2. 30. 9. 32. 160. 25. 0. 0. 0. 1. 7. 160. 64. 26. 0.
      0. 0. 0. 1. 160. 1. 7. 2. 0. 1. 2. 0. 0. 43. 13. 2. 0. 2. 7. 1. 5.
      160. 160. 7. 0. 0. 0. 0. 10. 35. 160. 13. 0. 0. 0. 0. 5. 2. 3. 1.
      1. 1. 0. 1. 1. 2. 9. 9. 2. 1. 0. 0. 0. 5. 118. 8. 0. 0. 0. 0. 0.
      1. 160. 16. 0. 0. 0. 0. 0.</_>
    <_>
      0. 20. 79. 3. 0. 0. 0. 0. 29. 123. 85. 2. 0. 0. 0. 0. 14. 18. 0.
      0. 0. 0. 0. 0. 0. 0. 0. 0. 0. 0. 0. 0. 24. 55. 155. 17. 0. 0. 0.
      0. 155. 155. 66. 6. 0. 0. 0. 4. 109. 28. 0. 0. 0. 0. 0. 1. 0. 0.
      0. 0. 0. 0. 0. 0. 69. 13. 23. 1. 1. 33. 13. 50. 155. 13. 3. 0. 0.
      0. 1. 155. 115. 2. 0. 0. 0. 0. 0. 28. 1. 0. 0. 0. 0. 0. 0. 0. 86.
      6. 0. 0. 6. 30. 17. 102. 155. 9. 0. 0. 0. 0. 1. 155. 20. 0. 0. 0.
      0. 0. 0. 21. 0. 0. 0. 0. 0. 0. 0. 0.</_>
    <_>
      0. 0. 0. 0. 0. 0. 0. 0. 1. 0. 0. 0. 1. 0. 0. 0. 37. 0. 0. 0. 1. 0.
      0. 29. 8. 0. 0. 0. 0. 0. 0. 15. 0. 0. 0. 19. 18. 0. 0. 0. 26. 7.
      3. 126. 150. 4. 0. 3. 153. 40. 3. 20. 19. 1. 0. 143. 63. 18. 1. 0.
      0. 0. 0. 60. 0. 0. 1. 41. 13. 0. 0. 0. 26. 35. 9. 153. 112. 9. 18.
      1. 153. 153. 43. 19. 7. 8. 13. 12. 36. 153. 30. 0. 0. 0. 0. 3. 0.
      0. 0. 1. 0. 0. 0. 0. 1. 4. 0. 10. 6. 46. 102. 6. 4. 87. 19. 1. 5.
      103. 82. 2. 13. 112. 10. 0. 1. 2. 0. 0.</_>
    <_>
      0. 0. 0. 3. 3. 5. 3. 0. 0. 0. 6. 19. 18. 9. 0. 0. 12. 5. 6. 4. 7.
      7. 3. 8. 149. 0. 0. 0. 0. 0. 0. 53. 0. 0. 0. 30. 23. 2. 0. 0. 3.
      11. 45. 130. 33. 0. 0. 0. 63. 79. 45. 17. 1. 0. 0. 4. 149. 9. 0.
      0. 0. 0. 0. 60. 0. 0. 0. 37. 81. 1. 0. 0. 30. 8. 8. 109. 130. 1.
      0. 3. 149. 26. 7. 10. 4. 0. 0. 32. 149. 2. 0. 0. 0. 0. 0. 94. 0.
      0. 0. 24. 99. 2. 0. 0. 25. 1. 0. 26. 98. 21. 12. 39. 149. 1. 0. 1.
      1. 1. 3. 92. 149. 0. 0. 0. 0. 0. 0. 84.</_>
    <_>
      0. 0. 0. 13. 10. 0. 0. 0. 22. 3. 1. 9. 11. 1. 2. 23. 108. 2. 0. 0.
      1. 1. 3. 151. 64. 0. 0. 0. 0. 0. 0. 151. 0. 0. 0. 21. 15. 0. 0. 0.
      74. 24. 4. 13. 8. 1. 2. 22. 151. 43. 0. 0. 0. 0. 0. 93. 102. 5. 0.
      0. 0. 0. 0. 40. 2. 0. 0. 13. 13. 0. 1. 10. 55. 2. 0. 2. 5. 1. 7.
      151. 151. 6. 0. 0. 0. 0. 1. 151. 61. 1. 0. 0. 0. 0. 0. 37. 39. 1.
      0. 6. 2. 0. 0. 35. 128. 0. 0. 0. 0. 0. 0. 151. 57. 0. 0. 0. 0. 0.
      0. 151. 4. 0. 0. 0. 0. 0. 0. 12.</_>
    <_>
      31. 45. 0. 2. 3. 3. 7. 31. 127. 176. 0. 0. 0. 0. 3. 12. 52. 37. 0.
      0. 0. 0. 0. 2. 0. 0. 0. 0. 0. 0. 0. 0. 3. 1. 0. 1. 1. 2. 40. 71.
      176. 58. 0. 0. 0. 0. 16. 46. 176. 67. 0. 0. 0. 0. 0. 13. 19. 1. 0.
      0. 0. 0. 0. 1. 2. 0. 0. 0. 0. 0. 12. 27. 169. 4. 0. 0. 0. 0. 3.
      48. 176. 10. 0. 0. 0. 0. 0. 58. 43. 0. 0. 0. 0. 0. 0. 4. 3. 1. 0.
      1. 1. 1. 4. 9. 157. 19. 6. 5. 4. 3. 2. 27. 176. 6. 0. 0. 0. 0. 0.
      51. 23. 0. 0. 0. 0. 0. 0. 3.</_>
    <_>
      2. 32. 155. 155. 10. 0. 0. 0. 0. 2. 69. 155. 53. 1. 0. 0. 2. 3. 9.
      46. 118. 93. 48. 9. 9. 0. 0. 2. 12. 36. 116. 155. 59. 42. 80. 17.
      9. 3. 1. 30. 7. 13. 58. 139. 51. 15. 3. 4. 99. 49. 40. 30. 6. 9.
      17. 33. 46. 2. 0. 0. 0. 2. 29. 74. 36. 0. 0. 2. 14. 16. 3. 63. 4.
      1. 2. 14. 59. 99. 56. 20. 74. 7. 2. 3. 3. 12. 53. 122. 52. 10. 0.
      0. 0. 0. 0. 17. 4. 1. 3. 14. 7. 2. 1. 19. 4. 10. 5. 5. 3. 11. 16.
      6. 5. 6. 3. 1. 0. 1. 14. 22. 15. 13. 2. 0. 0. 0. 0. 2.</_>
    <_>
      4. 1. 0. 1. 1. 2. 20. 10. 9. 10. 24. 11. 6. 4. 2. 4. 1. 8. 23. 4.
      46. 76. 1. 0. 11. 0. 0. 0. 19. 87. 35. 84. 2. 0. 0. 8. 30. 7. 7.
      5. 3. 16. 67. 96. 84. 19. 3. 2. 78. 95. 70. 15. 8. 14. 7. 12. 131.
      13. 0. 0. 2. 19. 35. 131. 0. 0. 0. 1. 20. 32. 21. 1. 4. 3. 3. 13.
      76. 131. 43. 8. 114. 31. 15. 8. 8. 34. 46. 58. 131. 131. 10. 0. 0.
      0. 0. 22. 0. 0. 0. 0. 1. 18. 18. 3. 0. 0. 0. 10. 67. 66. 12. 0. 5.
      24. 78. 120. 102. 15. 9. 4. 78. 131. 91. 20. 5. 0. 0. 0.</_>
    <_>
      2. 3. 1. 1. 1. 1. 4. 2. 7. 1. 1. 10. 6. 1. 1. 8. 138. 1. 1. 2. 1.
      0. 0. 138. 138. 0. 0. 0. 0. 0. 0. 138. 1. 0. 0. 0. 3. 17. 22. 2.
      55. 4. 1. 6. 15. 26. 3. 12. 138. 23. 0. 0. 0. 1. 1. 138. 132. 25.
      4. 0. 0. 0. 0. 99. 9. 5. 2. 2. 1. 12. 6. 3. 36. 6. 6. 5. 5. 38.
      10. 11. 138. 138. 18. 0. 0. 1. 3. 12. 47. 138. 94. 0. 0. 0. 0. 2.
      2. 1. 3. 8. 9. 6. 3. 2. 2. 13. 26. 25. 11. 3. 0. 0. 12. 116. 47.
      1. 0. 0. 0. 0. 1. 138. 84. 0. 0. 0. 0. 0.</_>
    <_>
      0. 0. 0. 96. 147. 3. 0. 0. 6. 6. 4. 57. 147. 3. 0. 1. 91. 21. 4.
      7. 6. 1. 0. 8. 35. 2. 0. 0. 0. 0. 0. 7. 0. 0. 0. 96. 147. 1. 0. 0.
      14. 4. 1. 33. 147. 8. 0. 2. 147. 19. 1. 4. 11. 2. 0. 7. 49. 5. 0.
      0. 0. 0. 0. 1. 0. 0. 0. 45. 147. 6. 0. 0. 13. 2. 1. 26. 147. 13.
      1. 5. 147. 11. 0. 2. 9. 4. 1. 19. 44. 7. 0. 0. 0. 0. 0. 2. 0. 0.
      0. 22. 147. 14. 0. 0. 15. 2. 0. 29. 94. 3. 0. 1. 117. 9. 0. 2. 4.
      0. 0. 4. 31. 9. 0. 0. 0. 0. 0. 0.</_>
    <_>
      0. 0. 7. 138. 14. 0. 0. 0. 10. 3. 45. 138. 1. 0. 1. 10. 4. 0. 20.
      50. 0. 1. 30. 41. 0. 0. 3. 4. 0. 2. 65. 12. 5. 1. 5. 138. 138. 28.
      2. 1. 106. 8. 13. 58. 6. 4. 2. 34. 38. 3. 0. 0. 0. 0. 14. 64. 0.
      0. 0. 0. 0. 3. 29. 10. 3. 0. 0. 9. 76. 138. 73. 1. 79. 11. 0. 1.
      2. 113. 113. 19. 44. 35. 2. 0. 0. 9. 16. 9. 1. 10. 9. 1. 1. 1. 2.
      1. 0. 0. 0. 0. 0. 106. 50. 0. 1. 0. 0. 0. 0. 138. 138. 2. 3. 8. 2.
      0. 0. 138. 96. 2. 0. 7. 18. 1. 0. 44. 29. 0.</_>
    <_>
      0. 0. 0. 0. 9. 6. 8. 1. 14. 1. 2. 10. 34. 6. 2. 11. 24. 2. 1. 2.
      4. 2. 98. 107. 1. 2. 2. 0. 0. 0. 178. 115. 0. 0. 0. 0. 11. 13. 8.
      2. 85. 5. 0. 1. 61. 28. 1. 13. 178. 20. 0. 0. 2. 1. 55. 149. 40.
      1. 0. 0. 0. 0. 125. 96. 1. 2. 1. 2. 10. 5. 2. 1. 86. 3. 0. 8. 59.
      18. 1. 8. 178. 10. 0. 1. 3. 2. 0. 33. 82. 1. 0. 0. 0. 0. 0. 9. 0.
      7. 9. 13. 6. 0. 0. 0. 85. 11. 6. 45. 37. 0. 0. 1. 178. 10. 1. 3.
      2. 0. 0. 20. 52. 0. 0. 0. 0. 0. 0. 5.</_>
    <_>
      14. 2. 1. 1. 4. 7. 1. 5. 125. 0. 0. 0. 0. 0. 0. 60. 62. 0. 0. 0.
      0. 0. 2. 76. 2. 0. 0. 0. 0. 0. 8. 28. 28. 1. 0. 0. 8. 132. 27. 4.
      159. 5. 0. 0. 0. 6. 4. 29. 109. 10. 0. 0. 0. 0. 0. 19. 13. 6. 0.
      0. 0. 0. 1. 5. 5. 0. 0. 0. 0. 159. 79. 3. 114. 24. 0. 0. 0. 133.
      66. 18. 61. 77. 0. 0. 0. 3. 4. 2. 10. 31. 0. 0. 0. 0. 0. 0. 0. 0.
      0. 0. 0. 159. 44. 0. 4. 3. 0. 0. 0. 159. 132. 3. 11. 40. 0. 0. 0.
      144. 40. 3. 11. 44. 1. 0. 0. 6. 5. 1.</_>
    <_>
      2. 0. 0. 0. 0. 0. 30. 94. 50. 12. 2. 1. 0. 0. 3. 82. 149. 97. 1.
      0. 0. 0. 0. 15. 149. 149. 4. 0. 0. 0. 0. 1. 0. 0. 0. 0. 1. 5. 68.
      56. 20. 21. 7. 8. 37. 29. 22. 20. 149. 71. 4. 3. 5. 2. 1. 8. 149.
      141. 0. 0. 0. 0. 0. 0. 0. 0. 0. 0. 1. 9. 40. 42. 8. 1. 0. 1. 23.
      95. 67. 18. 149. 5. 0. 0. 3. 18. 34. 63. 149. 34. 0. 0. 0. 0. 0.
      4. 2. 0. 0. 0. 0. 3. 11. 40. 0. 0. 0. 0. 0. 19. 47. 18. 31. 0. 0.
      0. 0. 9. 35. 56. 81. 4. 0. 0. 0. 0. 0. 16.</_>
    <_>
      9. 0. 0. 1. 133. 31. 0. 3. 62. 4. 0. 0. 14. 3. 1. 33. 12. 21. 6.
      1. 2. 2. 3. 15. 4. 87. 18. 1. 1. 0. 0. 0. 9. 0. 0. 0. 133. 133. 2.
      3. 88. 11. 1. 0. 17. 29. 3. 19. 17. 10. 3. 1. 7. 10. 11. 19. 8.
      11. 1. 1. 3. 4. 74. 34. 1. 0. 0. 0. 72. 133. 5. 0. 16. 18. 10. 1.
      12. 133. 26. 3. 98. 39. 19. 1. 2. 21. 19. 79. 67. 1. 0. 0. 0. 1.
      118. 133. 0. 0. 0. 0. 1. 54. 6. 0. 0. 0. 0. 0. 1. 133. 86. 2. 45.
      2. 1. 0. 1. 60. 133. 133. 43. 0. 0. 0. 0. 0. 8. 87.</_>
    <_>
      11. 136. 20. 4. 9. 0. 0. 0. 2. 88. 136. 87. 2. 0. 0. 0. 29. 96.
      136. 77. 4. 1. 0. 0. 62. 95. 16. 0. 0. 0. 0. 0. 5. 37. 17. 7. 18.
      2. 1. 5. 7. 31. 63. 49. 22. 9. 0. 4. 136. 46. 29. 37. 33. 20. 2.
      6. 136. 56. 1. 0. 0. 0. 0. 2. 3. 3. 11. 6. 25. 7. 1. 4. 4. 3. 27.
      60. 8. 1. 0. 3. 136. 8. 9. 49. 14. 3. 0. 43. 136. 6. 0. 0. 0. 0.
      0. 50. 0. 0. 14. 31. 58. 13. 0. 0. 8. 1. 31. 61. 1. 0. 1. 50. 98.
      1. 5. 15. 0. 0. 2. 136. 76. 0. 0. 0. 0. 0. 0. 100.</_>
    <_>
      14. 0. 4. 18. 17. 3. 0. 4. 151. 0. 0. 1. 3. 1. 0. 42. 107. 0. 0.
      0. 0. 0. 0. 12. 0. 0. 0. 0. 0. 0. 0. 0. 27. 5. 16. 12. 6. 0. 0. 2.
      151. 50. 7. 1. 1. 0. 0. 26. 99. 39. 28. 0. 0. 0. 0. 6. 0. 7. 6. 0.
      0. 0. 0. 0. 10. 10. 11. 2. 0. 5. 31. 3. 81. 151. 95. 6. 8. 11. 7.
      2. 13. 151. 151. 9. 7. 1. 0. 0. 13. 151. 67. 0. 0. 0. 0. 0. 1. 1.
      1. 1. 1. 6. 13. 4. 0. 3. 14. 12. 59. 28. 4. 0. 21. 73. 79. 16. 79.
      16. 1. 12. 151. 151. 20. 0. 1. 1. 0. 47.</_>
    <_>
      0. 0. 1. 137. 62. 0. 0. 0. 19. 2. 4. 137. 33. 0. 4. 26. 6. 0. 0.
      8. 2. 0. 40. 70. 0. 0. 0. 0. 0. 1. 63. 16. 10. 4. 3. 137. 137. 18.
      1. 1. 133. 11. 4. 34. 6. 1. 1. 30. 43. 3. 0. 0. 0. 0. 7. 53. 0. 0.
      0. 0. 1. 5. 16. 7. 6. 1. 0. 14. 95. 137. 75. 3. 102. 14. 0. 1. 1.
      64. 115. 27. 40. 34. 7. 0. 0. 8. 10. 7. 0. 6. 18. 5. 1. 0. 0. 0.
      0. 0. 0. 0. 2. 137. 89. 0. 2. 1. 0. 2. 34. 137. 137. 5. 2. 7. 8.
      3. 65. 89. 24. 2. 0. 4. 26. 2. 2. 3. 8. 1.</_>
    <_>
      0. 0. 0. 125. 50. 0. 0. 0. 0. 0. 2. 132. 67. 1. 4. 6. 0. 0. 13.
      91. 10. 3. 58. 23. 0. 0. 8. 6. 0. 4. 85. 7. 0. 1. 1. 132. 132. 2.
      0. 0. 45. 6. 4. 130. 70. 2. 4. 28. 18. 1. 0. 2. 1. 2. 43. 52. 0.
      0. 0. 1. 3. 18. 37. 3. 1. 0. 0. 41. 132. 132. 36. 1. 55. 6. 1. 13.
      29. 85. 129. 31. 24. 8. 13. 4. 5. 21. 16. 10. 1. 1. 11. 8. 4. 3.
      1. 3. 0. 0. 0. 0. 7. 105. 51. 0. 0. 0. 0. 0. 52. 132. 132. 3. 0.
      0. 2. 1. 92. 87. 18. 3. 4. 1. 3. 1. 2. 3. 7. 29.</_>
    <_>
      4. 7. 6. 9. 5. 6. 1. 0. 60. 148. 5. 4. 1. 0. 0. 0. 122. 143. 0. 0.
      0. 0. 0. 0. 7. 3. 0. 0. 0. 0. 0. 0. 0. 1. 52. 18. 0. 0. 0. 0. 98.
      56. 28. 10. 0. 0. 0. 2. 148. 76. 0. 0. 0. 0. 0. 8. 42. 5. 0. 0. 0.
      0. 0. 1. 0. 11. 72. 3. 0. 0. 0. 0. 148. 45. 36. 1. 0. 0. 0. 12.
      148. 40. 16. 2. 0. 0. 0. 48. 31. 7. 62. 13. 0. 0. 0. 3. 0. 20. 56.
      3. 0. 0. 0. 0. 61. 120. 43. 4. 0. 0. 0. 1. 98. 148. 115. 14. 0. 0.
      0. 3. 2. 11. 148. 48. 0. 0. 0. 0.</_>
    <_>
      0. 2. 35. 10. 1. 0. 0. 0. 68. 110. 19. 3. 0. 0. 0. 0. 160. 147. 0.
      0. 0. 0. 0. 0. 12. 8. 0. 0. 0. 0. 0. 0. 0. 8. 57. 2. 0. 0. 0. 0.
      99. 43. 42. 4. 0. 0. 0. 1. 160. 56. 1. 0. 0. 0. 0. 9. 47. 4. 0. 0.
      0. 0. 0. 1. 0. 22. 62. 2. 0. 0. 0. 0. 129. 59. 49. 7. 0. 0. 0. 3.
      160. 90. 6. 0. 0. 0. 0. 23. 34. 15. 26. 7. 0. 0. 0. 2. 10. 36. 26.
      18. 0. 0. 0. 0. 39. 87. 44. 37. 0. 0. 0. 0. 100. 160. 55. 0. 0. 0.
      0. 0. 3. 70. 160. 25. 0. 0. 0. 0.</_>
    <_>
      130. 11. 0. 0. 0. 0. 4. 9. 107. 18. 5. 1. 0. 0. 14. 17. 166. 25.
      0. 0. 0. 0. 0. 5. 26. 2. 0. 0. 0. 0. 0. 0. 155. 11. 1. 2. 1. 0. 0.
      10. 112. 47. 19. 20. 8. 3. 0. 3. 166. 65. 2. 0. 0. 0. 0. 4. 43. 3.
      0. 0. 0. 0. 0. 0. 149. 3. 0. 0. 1. 2. 1. 7. 118. 7. 3. 4. 9. 20.
      8. 34. 166. 5. 0. 0. 0. 1. 1. 55. 45. 0. 0. 0. 0. 0. 0. 2. 103. 8.
      4. 1. 0. 0. 0. 2. 129. 17. 13. 2. 0. 1. 1. 21. 166. 1. 0. 0. 0. 0.
      0. 61. 22. 0. 0. 0. 0. 0. 0. 3.</_>
    <_>
      119. 17. 0. 0. 0. 0. 2. 3. 85. 21. 5. 4. 0. 2. 8. 6. 179. 43. 1.
      0. 0. 0. 0. 2. 51. 6. 0. 0. 0. 0. 0. 0. 145. 9. 0. 1. 1. 0. 0. 9.
      94. 30. 10. 20. 11. 3. 1. 4. 179. 45. 2. 1. 1. 0. 0. 6. 84. 2. 0.
      0. 0. 0. 0. 1. 148. 1. 0. 0. 1. 1. 0. 8. 96. 3. 2. 3. 10. 20. 6.
      24. 179. 2. 0. 0. 0. 1. 2. 43. 82. 0. 0. 0. 0. 0. 0. 2. 107. 9. 2.
      1. 0. 0. 0. 1. 95. 15. 12. 10. 1. 1. 0. 7. 179. 4. 1. 0. 0. 0. 0.
      35. 52. 0. 0. 0. 0. 0. 0. 4.</_>
    <_>
      0. 0. 7. 144. 128. 0. 0. 0. 0. 0. 1. 144. 144. 5. 0. 0. 11. 4. 9.
      38. 35. 7. 4. 19. 92. 13. 4. 1. 0. 0. 0. 58. 4. 3. 87. 144. 15. 1.
      1. 0. 37. 8. 17. 93. 32. 20. 18. 11. 10. 0. 0. 2. 12. 31. 92. 78.
      53. 0. 0. 0. 0. 0. 10. 126. 7. 1. 23. 51. 2. 15. 41. 6. 109. 9. 2.
      2. 0. 5. 21. 22. 53. 4. 0. 0. 0. 1. 43. 53. 18. 0. 0. 0. 0. 0. 8.
      74. 0. 0. 0. 0. 0. 11. 135. 48. 23. 2. 0. 0. 0. 16. 144. 41. 39.
      3. 0. 0. 0. 28. 113. 29. 28. 0. 0. 0. 0. 4. 24. 24.</_>
    <_>
      2. 26. 30. 16. 60. 13. 0. 0. 10. 60. 19. 4. 40. 27. 0. 0. 4. 3. 0.
      1. 107. 103. 0. 1. 118. 118. 0. 0. 32. 38. 0. 1. 8. 11. 6. 8. 118.
      109. 1. 1. 106. 59. 5. 2. 25. 23. 3. 6. 14. 3. 0. 0. 100. 91. 1.
      1. 36. 77. 1. 1. 87. 94. 0. 0. 1. 0. 0. 0. 118. 118. 5. 2. 77. 2.
      0. 0. 15. 68. 19. 33. 25. 0. 0. 0. 55. 76. 1. 5. 2. 6. 0. 0. 60.
      118. 0. 0. 0. 0. 0. 0. 68. 118. 1. 0. 11. 0. 0. 0. 33. 118. 9. 9.
      12. 3. 0. 0. 11. 41. 2. 3. 0. 0. 0. 0. 10. 97. 1. 0.</_>
    <_>
      11. 10. 4. 0. 1. 13. 1. 4. 107. 4. 1. 0. 0. 0. 0. 27. 98. 0. 0. 0.
      0. 0. 2. 31. 11. 1. 0. 0. 0. 0. 2. 14. 19. 1. 0. 0. 3. 151. 13. 7.
      133. 8. 0. 0. 0. 8. 2. 69. 73. 7. 0. 0. 0. 0. 0. 41. 12. 9. 0. 0.
      0. 0. 0. 0. 5. 0. 0. 0. 2. 151. 67. 1. 86. 30. 2. 0. 1. 146. 84.
      20. 35. 62. 10. 0. 0. 10. 9. 10. 9. 18. 0. 0. 0. 0. 1. 2. 0. 0. 0.
      0. 0. 151. 55. 0. 1. 2. 1. 0. 0. 151. 151. 3. 9. 11. 2. 0. 0. 111.
      151. 21. 5. 4. 0. 0. 0. 27. 88. 8.</_>
    <_>
      1. 152. 96. 0. 0. 0. 0. 0. 9. 152. 152. 0. 0. 0. 0. 0. 3. 56. 152.
      98. 1. 0. 0. 0. 0. 0. 28. 152. 10. 1. 0. 0. 37. 59. 14. 0. 0. 0.
      4. 16. 152. 119. 37. 0. 0. 0. 0. 29. 61. 42. 45. 16. 1. 1. 0. 8.
      0. 0. 6. 20. 4. 8. 2. 0. 65. 10. 0. 0. 0. 0. 1. 9. 152. 21. 0. 0.
      0. 0. 0. 14. 81. 19. 0. 0. 0. 1. 0. 4. 1. 1. 0. 0. 2. 4. 1. 0. 63.
      10. 1. 0. 0. 0. 0. 6. 152. 33. 0. 0. 0. 0. 0. 3. 79. 21. 0. 0. 0.
      0. 0. 2. 2. 0. 0. 0. 3. 2. 1. 1.</_>
    <_>
      0. 4. 3. 0. 0. 2. 0. 0. 4. 1. 2. 0. 1. 33. 7. 6. 6. 0. 0. 0. 3.
      76. 117. 96. 0. 0. 0. 0. 0. 7. 140. 140. 0. 9. 13. 0. 0. 0. 0. 0.
      72. 8. 7. 0. 0. 0. 1. 17. 140. 9. 0. 0. 0. 1. 31. 140. 34. 5. 0.
      0. 0. 0. 71. 140. 11. 12. 3. 0. 0. 0. 0. 1. 94. 16. 1. 0. 0. 0. 0.
      7. 140. 140. 0. 0. 0. 0. 0. 13. 94. 87. 0. 0. 0. 0. 0. 10. 17. 18.
      1. 0. 0. 0. 0. 1. 32. 14. 0. 0. 0. 0. 0. 3. 140. 106. 0. 0. 0. 0.
      0. 1. 140. 52. 0. 0. 0. 0. 0. 1.</_>
    <_>
      1. 55. 129. 1. 0. 0. 0. 0. 3. 129. 127. 0. 0. 0. 0. 0. 22. 125.
      12. 0. 0. 0. 0. 0. 3. 4. 0. 0. 0. 0. 0. 0. 8. 88. 46. 1. 0. 0. 0.
      0. 32. 119. 103. 13. 0. 0. 0. 3. 129. 129. 12. 0. 0. 0. 0. 7. 33.
      12. 0. 0. 0. 0. 0. 0. 2. 24. 20. 1. 0. 5. 38. 29. 58. 15. 30. 7.
      0. 0. 43. 83. 129. 87. 35. 0. 0. 0. 4. 54. 25. 67. 57. 0. 0. 0. 0.
      0. 0. 0. 0. 0. 0. 41. 129. 30. 7. 2. 0. 0. 0. 1. 129. 88. 18. 38.
      31. 0. 0. 20. 129. 31. 0. 46. 47. 0. 0. 17. 30. 0.</_>
    <_>
      0. 22. 128. 14. 0. 0. 0. 0. 1. 128. 128. 0. 0. 0. 0. 0. 12. 115.
      12. 0. 0. 0. 0. 0. 2. 4. 0. 0. 0. 0. 0. 0. 1. 71. 88. 5. 0. 0. 0.
      0. 29. 128. 122. 24. 0. 0. 0. 4. 128. 128. 15. 1. 0. 0. 0. 8. 32.
      14. 1. 0. 0. 0. 0. 0. 2. 29. 41. 2. 0. 0. 12. 26. 65. 16. 35. 14.
      0. 0. 17. 98. 128. 92. 36. 0. 0. 0. 1. 59. 26. 59. 73. 0. 0. 0. 0.
      1. 2. 0. 0. 0. 0. 19. 93. 56. 13. 3. 0. 0. 0. 0. 73. 123. 23. 47.
      33. 0. 0. 1. 108. 63. 1. 38. 58. 0. 0. 6. 59. 4.</_>
    <_>
      4. 158. 64. 5. 1. 0. 0. 0. 51. 158. 21. 0. 0. 0. 0. 0. 11. 80. 6.
      0. 0. 0. 0. 0. 0. 2. 0. 0. 0. 0. 0. 0. 5. 38. 12. 4. 2. 0. 0. 0.
      53. 158. 42. 0. 0. 0. 0. 1. 151. 158. 20. 0. 0. 0. 0. 2. 23. 15.
      0. 0. 0. 0. 0. 0. 2. 4. 7. 9. 4. 0. 0. 0. 118. 30. 9. 1. 0. 0. 0.
      27. 158. 52. 4. 0. 0. 0. 0. 58. 51. 9. 23. 12. 0. 0. 0. 3. 3. 1.
      1. 6. 2. 0. 2. 15. 116. 5. 0. 0. 0. 0. 1. 42. 158. 64. 49. 8. 0.
      0. 0. 23. 9. 10. 132. 56. 0. 0. 0. 1.</_>
    <_>
      140. 64. 0. 0. 0. 1. 0. 0. 151. 118. 0. 0. 0. 0. 0. 0. 18. 10. 0.
      0. 0. 0. 0. 0. 0. 0. 0. 0. 0. 0. 0. 0. 91. 46. 0. 0. 3. 1. 0. 2.
      151. 151. 0. 0. 0. 0. 0. 7. 82. 21. 0. 0. 0. 0. 0. 1. 0. 0. 0. 0.
      0. 0. 0. 0. 91. 4. 2. 2. 1. 0. 0. 36. 151. 9. 0. 0. 0. 0. 0. 146.
      87. 1. 0. 0. 0. 0. 0. 20. 0. 0. 0. 0. 0. 0. 0. 0. 122. 10. 3. 0.
      0. 0. 0. 121. 151. 0. 0. 0. 0. 0. 0. 151. 17. 0. 0. 0. 0. 0. 0.
      13. 0. 0. 0. 0. 0. 0. 0. 0.</_>
    <_>
      32. 19. 2. 1. 3. 12. 4. 4. 109. 26. 0. 0. 9. 20. 7. 6. 146. 57. 0.
      0. 0. 0. 0. 7. 77. 4. 0. 0. 0. 0. 0. 35. 102. 18. 0. 1. 7. 10. 3.
      18. 72. 29. 0. 0. 43. 44. 4. 10. 146. 94. 0. 0. 3. 3. 1. 16. 146.
      8. 0. 0. 0. 0. 0. 34. 54. 0. 0. 0. 4. 21. 19. 98. 43. 2. 0. 0. 33.
      81. 15. 40. 146. 17. 0. 0. 3. 10. 5. 60. 146. 11. 0. 0. 0. 0. 0.
      36. 15. 0. 0. 1. 10. 22. 12. 42. 16. 7. 2. 16. 57. 16. 2. 9. 146.
      124. 5. 6. 10. 2. 1. 3. 108. 116. 0. 0. 0. 0. 0. 1.</_>
    <_>
      95. 23. 0. 0. 0. 0. 2. 26. 142. 125. 0. 0. 0. 0. 0. 31. 79. 49. 7.
      0. 0. 0. 0. 6. 0. 3. 12. 2. 0. 0. 0. 0. 85. 8. 0. 0. 0. 0. 3. 34.
      142. 68. 11. 2. 0. 0. 0. 64. 95. 55. 142. 39. 0. 0. 0. 6. 0. 37.
      142. 22. 0. 0. 0. 0. 94. 11. 0. 0. 0. 0. 1. 8. 142. 122. 45. 8. 0.
      0. 0. 10. 10. 37. 142. 88. 0. 0. 0. 1. 0. 44. 142. 24. 0. 0. 0. 0.
      61. 1. 0. 0. 0. 0. 0. 15. 101. 18. 5. 1. 0. 0. 0. 14. 6. 6. 11.
      10. 1. 1. 0. 1. 0. 3. 8. 3. 1. 0. 0. 0.</_>
    <_>
      1. 0. 0. 0. 0. 11. 96. 11. 37. 9. 0. 0. 0. 1. 126. 112. 25. 8. 0.
      0. 0. 21. 142. 87. 0. 0. 0. 0. 0. 9. 142. 142. 2. 3. 1. 0. 0. 1.
      12. 5. 102. 90. 1. 0. 0. 0. 5. 26. 142. 108. 0. 0. 0. 1. 46. 46.
      36. 6. 0. 0. 0. 1. 43. 50. 1. 1. 1. 1. 0. 0. 0. 1. 106. 28. 0. 0.
      0. 0. 0. 20. 142. 77. 0. 0. 0. 0. 0. 37. 57. 23. 0. 0. 0. 0. 0. 5.
      0. 1. 5. 2. 0. 0. 0. 0. 25. 46. 5. 0. 0. 0. 0. 0. 75. 142. 3. 0.
      0. 0. 0. 0. 23. 142. 0. 0. 0. 0. 0. 0.</_>
    <_>
      6. 1. 0. 0. 0. 0. 4. 13. 144. 47. 0. 0. 0. 0. 1. 3. 144. 64. 0. 0.
      0. 0. 0. 0. 11. 3. 0. 0. 0. 0. 0. 0. 5. 22. 9. 0. 0. 0. 0. 2. 138.
      58. 3. 1. 0. 0. 0. 5. 144. 93. 0. 0. 0. 0. 0. 11. 33. 5. 0. 0. 0.
      0. 0. 1. 6. 94. 35. 0. 0. 0. 0. 0. 144. 32. 3. 0. 0. 0. 0. 96.
      144. 5. 0. 0. 0. 0. 0. 143. 27. 0. 0. 0. 0. 0. 0. 7. 40. 56. 19.
      0. 0. 0. 7. 98. 139. 16. 1. 0. 0. 0. 1. 144. 77. 0. 0. 0. 0. 0. 0.
      127. 3. 0. 0. 0. 0. 0. 0. 3.</_>
    <_>
      1. 35. 138. 65. 1. 0. 0. 0. 47. 138. 83. 4. 0. 0. 0. 0. 21. 26. 1.
      0. 0. 0. 0. 0. 0. 0. 1. 0. 0. 0. 0. 0. 25. 15. 69. 89. 6. 0. 0. 5.
      138. 120. 29. 13. 2. 0. 0. 36. 91. 33. 89. 38. 0. 0. 0. 3. 0. 1.
      64. 16. 0. 0. 0. 0. 69. 6. 30. 19. 0. 0. 0. 21. 138. 93. 61. 4. 0.
      0. 0. 27. 26. 35. 138. 67. 0. 0. 10. 86. 4. 5. 58. 16. 0. 0. 30.
      84. 43. 5. 1. 0. 0. 3. 44. 36. 59. 27. 6. 0. 0. 0. 22. 125. 35. 4.
      7. 0. 0. 0. 9. 138. 2. 0. 0. 0. 0. 0. 18. 75.</_>
    <_>
      0. 0. 1. 32. 35. 6. 16. 5. 27. 0. 0. 2. 4. 3. 38. 60. 156. 1. 0.
      0. 0. 0. 2. 156. 120. 1. 0. 0. 0. 0. 0. 51. 8. 4. 23. 7. 1. 1. 9.
      11. 116. 9. 9. 2. 0. 0. 11. 31. 156. 59. 11. 0. 0. 0. 0. 101. 68.
      34. 77. 0. 0. 0. 0. 17. 23. 13. 40. 10. 0. 0. 0. 16. 119. 11. 6.
      0. 0. 0. 0. 100. 156. 125. 70. 1. 0. 0. 0. 32. 7. 56. 156. 5. 0.
      0. 0. 0. 40. 1. 1. 2. 0. 0. 2. 66. 83. 3. 0. 0. 0. 0. 0. 86. 23.
      17. 12. 0. 0. 0. 0. 13. 0. 4. 32. 6. 2. 0. 0. 0.</_>
    <_>
      1. 62. 11. 0. 0. 0. 0. 0. 1. 47. 44. 2. 0. 0. 0. 0. 2. 49. 22. 0.
      0. 0. 0. 0. 0. 6. 6. 4. 1. 0. 0. 0. 0. 80. 115. 22. 0. 0. 0. 0. 7.
      47. 131. 90. 0. 0. 0. 1. 79. 131. 85. 4. 0. 0. 0. 2. 22. 36. 7. 1.
      0. 0. 0. 0. 6. 85. 131. 16. 0. 0. 0. 0. 41. 54. 108. 59. 0. 0. 0.
      10. 131. 131. 41. 2. 0. 0. 0. 17. 37. 78. 40. 4. 0. 0. 0. 0. 10.
      35. 62. 9. 0. 0. 0. 0. 4. 43. 118. 32. 1. 0. 0. 0. 11. 131. 131.
      3. 1. 0. 0. 0. 3. 131. 82. 0. 0. 0. 0. 0.</_>
    <_>
      3. 1. 0. 0. 0. 0. 4. 7. 143. 42. 0. 0. 0. 0. 0. 2. 163. 100. 0. 0.
      0. 0. 0. 4. 41. 18. 0. 0. 0. 0. 0. 1. 0. 1. 2. 10. 4. 1. 1. 0.
      124. 52. 5. 6. 2. 0. 0. 4. 163. 54. 0. 0. 0. 0. 0. 16. 85. 4. 1.
      2. 0. 0. 0. 7. 0. 1. 10. 16. 2. 0. 0. 0. 144. 15. 2. 7. 3. 0. 0.
      33. 163. 37. 3. 1. 0. 0. 0. 82. 58. 8. 25. 55. 0. 0. 0. 8. 5. 10.
      11. 2. 0. 0. 0. 1. 126. 16. 1. 1. 0. 0. 0. 14. 163. 124. 35. 6. 0.
      0. 0. 6. 8. 24. 86. 113. 0. 0. 0. 0.</_>
    <_>
      33. 2. 0. 1. 0. 1. 13. 27. 159. 8. 0. 0. 0. 0. 0. 18. 149. 5. 3.
      0. 0. 0. 0. 2. 1. 0. 8. 1. 0. 0. 0. 0. 49. 9. 14. 8. 0. 0. 2. 4.
      159. 31. 10. 2. 0. 0. 0. 33. 123. 23. 120. 52. 0. 0. 0. 6. 0. 0.
      159. 34. 0. 0. 0. 0. 90. 14. 14. 5. 0. 0. 0. 9. 159. 91. 46. 8. 0.
      0. 0. 12. 17. 32. 159. 96. 0. 0. 0. 0. 0. 0. 153. 42. 1. 0. 0. 0.
      79. 1. 0. 0. 0. 0. 0. 30. 88. 26. 8. 1. 0. 0. 0. 10. 2. 18. 19. 6.
      0. 0. 0. 0. 0. 2. 5. 4. 2. 0. 0. 0.</_>
    <_>
      0. 0. 0. 0. 0. 3. 29. 22. 24. 1. 0. 0. 0. 26. 87. 40. 27. 1. 0. 0.
      0. 85. 153. 54. 2. 0. 0. 0. 0. 104. 153. 3. 3. 0. 0. 0. 0. 0. 5.
      19. 129. 16. 0. 0. 0. 0. 3. 24. 153. 35. 0. 0. 0. 24. 82. 57. 23.
      1. 0. 0. 0. 96. 153. 8. 4. 8. 3. 0. 0. 0. 0. 2. 140. 10. 2. 0. 0.
      0. 0. 15. 153. 9. 0. 0. 0. 0. 0. 58. 46. 1. 0. 0. 0. 2. 10. 9. 1.
      8. 9. 0. 0. 0. 0. 0. 138. 22. 3. 0. 0. 0. 0. 17. 153. 30. 0. 0. 0.
      0. 0. 45. 22. 5. 0. 0. 0. 0. 0. 3.</_>
    <_>
      33. 82. 9. 0. 0. 0. 0. 0. 10. 62. 42. 0. 0. 0. 0. 0. 10. 63. 13.
      0. 0. 0. 0. 0. 6. 13. 1. 2. 0. 0. 0. 0. 14. 140. 102. 3. 0. 0. 0.
      0. 11. 78. 140. 17. 0. 0. 0. 1. 95. 140. 49. 0. 0. 0. 0. 3. 33.
      31. 2. 3. 1. 0. 0. 0. 21. 100. 68. 6. 0. 0. 0. 3. 68. 114. 110.
      10. 0. 0. 0. 7. 140. 123. 6. 0. 0. 0. 0. 29. 46. 31. 16. 10. 0. 0.
      0. 2. 6. 35. 40. 26. 7. 2. 0. 0. 19. 140. 67. 22. 11. 9. 0. 0. 75.
      140. 6. 0. 0. 0. 0. 1. 18. 126. 21. 10. 1. 0. 2. 3.</_>
    <_>
      29. 2. 0. 0. 4. 4. 12. 25. 152. 43. 0. 0. 0. 0. 0. 10. 152. 24. 2.
      0. 0. 0. 0. 1. 1. 1. 7. 4. 0. 0. 0. 0. 34. 12. 20. 9. 0. 0. 2. 4.
      152. 34. 8. 1. 0. 0. 0. 35. 152. 27. 101. 40. 0. 0. 0. 11. 0. 0.
      152. 69. 0. 0. 0. 0. 57. 20. 18. 17. 2. 0. 0. 2. 152. 126. 35. 5.
      0. 0. 0. 4. 29. 49. 152. 89. 0. 0. 0. 1. 0. 0. 136. 65. 0. 0. 0.
      0. 42. 3. 0. 2. 3. 1. 1. 13. 105. 58. 6. 0. 0. 0. 0. 2. 9. 41. 27.
      6. 0. 0. 0. 0. 0. 6. 9. 5. 1. 0. 0. 0.</_>
    <_>
      85. 133. 1. 0. 0. 0. 0. 0. 46. 109. 18. 0. 0. 0. 0. 0. 17. 66. 9.
      0. 0. 0. 0. 0. 6. 11. 0. 0. 0. 0. 0. 0. 93. 133. 17. 0. 0. 0. 0.
      3. 20. 133. 133. 0. 0. 0. 0. 0. 100. 133. 49. 0. 0. 0. 0. 4. 37.
      27. 2. 2. 0. 0. 0. 0. 53. 57. 18. 5. 0. 0. 0. 3. 110. 70. 70. 10.
      1. 0. 0. 7. 133. 77. 7. 0. 0. 0. 0. 41. 48. 22. 17. 7. 0. 0. 1. 5.
      28. 11. 7. 8. 3. 1. 1. 14. 80. 61. 13. 15. 4. 0. 0. 1. 133. 133.
      1. 0. 0. 0. 0. 30. 38. 23. 5. 2. 0. 0. 56. 115.</_>
    <_>
      2. 11. 12. 1. 0. 0. 0. 0. 131. 54. 2. 0. 0. 0. 0. 1. 161. 110. 0.
      0. 0. 0. 0. 6. 60. 26. 0. 0. 0. 0. 0. 2. 13. 19. 1. 0. 0. 0. 0. 0.
      161. 31. 0. 0. 0. 0. 0. 4. 161. 26. 1. 0. 0. 0. 0. 24. 92. 11. 25.
      25. 0. 0. 0. 9. 26. 10. 0. 0. 0. 0. 0. 0. 161. 25. 0. 0. 0. 0. 0.
      18. 161. 67. 26. 10. 0. 0. 0. 31. 33. 18. 89. 135. 0. 0. 0. 0. 17.
      1. 0. 0. 0. 0. 1. 7. 95. 29. 0. 0. 0. 0. 1. 13. 125. 109. 42. 11.
      0. 0. 0. 4. 1. 10. 59. 67. 0. 0. 0. 0.</_>
    <_>
      25. 11. 18. 7. 0. 0. 0. 2. 159. 5. 1. 0. 0. 0. 0. 60. 159. 2. 0.
      0. 0. 0. 0. 46. 5. 1. 3. 1. 0. 0. 0. 1. 76. 22. 12. 2. 0. 0. 0. 4.
      159. 21. 4. 0. 0. 0. 0. 30. 159. 44. 85. 3. 0. 0. 0. 6. 1. 3. 121.
      35. 0. 0. 0. 0. 100. 3. 0. 0. 0. 0. 0. 20. 159. 88. 34. 1. 0. 0.
      0. 13. 27. 48. 159. 17. 0. 0. 0. 0. 0. 1. 159. 55. 0. 0. 0. 0. 65.
      1. 0. 0. 0. 0. 0. 20. 95. 35. 12. 0. 0. 0. 0. 7. 2. 21. 52. 3. 0.
      0. 0. 0. 0. 7. 25. 5. 0. 0. 0. 0.</_>
    <_>
      27. 3. 0. 0. 0. 0. 4. 7. 164. 61. 0. 0. 0. 0. 0. 10. 150. 27. 0.
      0. 0. 0. 0. 6. 1. 0. 0. 0. 0. 0. 0. 0. 33. 6. 1. 0. 0. 0. 1. 6.
      164. 16. 0. 0. 0. 0. 0. 61. 164. 8. 0. 0. 0. 0. 0. 28. 1. 0. 0. 0.
      0. 0. 0. 0. 39. 55. 12. 0. 0. 0. 0. 4. 164. 76. 0. 0. 0. 0. 0. 43.
      164. 33. 0. 0. 0. 0. 0. 15. 0. 0. 0. 0. 0. 0. 0. 0. 105. 65. 4. 0.
      0. 0. 0. 57. 164. 5. 0. 0. 0. 0. 0. 164. 69. 1. 0. 0. 0. 0. 0. 56.
      0. 0. 0. 0. 0. 0. 0. 0.</_>
    <_>
      3. 23. 6. 1. 0. 0. 0. 0. 66. 5. 1. 2. 2. 0. 0. 12. 173. 5. 0. 0.
      0. 0. 0. 43. 128. 3. 2. 2. 0. 0. 0. 10. 28. 24. 1. 0. 0. 0. 0. 0.
      127. 8. 0. 0. 0. 0. 0. 15. 173. 15. 2. 1. 0. 0. 0. 46. 110. 16.
      34. 66. 0. 0. 0. 8. 49. 4. 0. 0. 0. 0. 0. 1. 142. 16. 0. 0. 0. 0.
      0. 7. 173. 113. 30. 9. 0. 0. 0. 12. 33. 32. 80. 167. 0. 0. 0. 0.
      24. 0. 0. 0. 0. 0. 0. 14. 55. 24. 0. 0. 0. 0. 0. 2. 77. 147. 26.
      3. 0. 0. 0. 0. 3. 36. 50. 38. 0. 0. 0. 0.</_>
    <_>
      29. 0. 0. 0. 0. 0. 0. 23. 40. 0. 0. 0. 0. 0. 0. 29. 136. 0. 0. 0.
      0. 0. 0. 136. 136. 4. 9. 2. 0. 0. 0. 136. 15. 0. 0. 0. 0. 0. 3.
      42. 98. 2. 0. 0. 0. 0. 0. 46. 136. 64. 16. 1. 0. 0. 0. 136. 105.
      46. 136. 50. 0. 0. 0. 50. 12. 1. 0. 0. 0. 0. 1. 15. 110. 15. 0. 0.
      0. 0. 0. 12. 136. 124. 29. 1. 0. 0. 0. 4. 10. 45. 134. 38. 0. 0.
      0. 0. 10. 2. 0. 0. 0. 0. 0. 2. 59. 18. 0. 0. 0. 0. 0. 10. 130. 38.
      1. 0. 0. 0. 0. 8. 13. 14. 18. 1. 0. 0. 0. 0.</_>
    <_>
      3. 0. 0. 0. 0. 6. 73. 20. 31. 2. 0. 0. 0. 1. 112. 84. 26. 2. 0. 0.
      0. 99. 135. 51. 0. 0. 0. 0. 0. 135. 135. 1. 27. 0. 0. 0. 0. 0. 5.
      15. 135. 27. 0. 0. 0. 0. 4. 29. 135. 46. 0. 0. 0. 32. 69. 42. 18.
      1. 0. 0. 0. 135. 135. 6. 14. 0. 0. 0. 0. 0. 0. 20. 135. 10. 0. 0.
      0. 0. 0. 34. 135. 23. 0. 0. 0. 0. 1. 70. 35. 2. 0. 0. 0. 12. 13.
      10. 3. 0. 0. 0. 0. 0. 1. 11. 84. 36. 0. 0. 0. 0. 0. 5. 135. 96. 0.
      0. 0. 0. 0. 9. 34. 13. 0. 0. 0. 0. 0. 2.</_>
    <_>
      11. 40. 7. 1. 0. 0. 0. 0. 108. 40. 7. 1. 0. 0. 0. 0. 147. 52. 0.
      0. 0. 0. 0. 0. 14. 2. 0. 0. 0. 0. 0. 0. 16. 96. 27. 0. 0. 0. 0. 0.
      109. 69. 28. 0. 0. 0. 0. 14. 147. 68. 0. 0. 0. 0. 0. 24. 31. 4. 0.
      0. 0. 0. 0. 1. 25. 65. 16. 1. 3. 1. 1. 8. 147. 36. 6. 0. 0. 0. 0.
      147. 147. 5. 0. 0. 0. 0. 0. 147. 18. 0. 0. 0. 0. 0. 0. 13. 39. 2.
      1. 4. 3. 1. 0. 106. 147. 1. 0. 0. 0. 0. 0. 147. 85. 0. 0. 0. 0. 0.
      0. 95. 1. 0. 0. 0. 0. 0. 0. 4.</_>
    <_>
      0. 0. 96. 46. 0. 0. 0. 0. 1. 3. 39. 13. 0. 0. 0. 0. 4. 3. 2. 0. 0.
      0. 0. 0. 0. 0. 0. 0. 0. 0. 0. 0. 0. 26. 154. 45. 0. 0. 0. 0. 34.
      60. 154. 43. 0. 0. 0. 10. 154. 98. 20. 1. 0. 0. 0. 25. 31. 1. 0.
      0. 0. 0. 0. 3. 11. 34. 77. 3. 0. 0. 0. 30. 47. 17. 39. 18. 0. 0.
      13. 154. 154. 19. 2. 1. 0. 0. 3. 154. 31. 0. 0. 0. 0. 0. 0. 15.
      73. 9. 3. 0. 0. 0. 0. 118. 96. 57. 6. 0. 0. 0. 9. 154. 15. 24. 22.
      0. 0. 0. 2. 125. 1. 4. 8. 0. 0. 0. 0. 3.</_>
    <_>
      0. 0. 0. 0. 0. 0. 70. 28. 2. 0. 0. 0. 0. 7. 133. 48. 2. 0. 0. 0.
      0. 3. 139. 79. 0. 0. 0. 0. 0. 3. 139. 11. 9. 0. 0. 0. 0. 0. 30.
      50. 94. 1. 0. 0. 0. 0. 41. 85. 139. 2. 0. 0. 0. 1. 132. 127. 14.
      0. 0. 0. 0. 5. 139. 28. 32. 0. 0. 0. 0. 0. 0. 10. 139. 16. 0. 0.
      0. 0. 0. 6. 139. 41. 0. 0. 0. 0. 1. 16. 55. 11. 0. 0. 0. 0. 14.
      12. 17. 0. 0. 0. 0. 0. 0. 8. 51. 34. 0. 0. 0. 0. 0. 1. 139. 139.
      0. 0. 0. 0. 0. 0. 56. 66. 0. 0. 0. 0. 0. 0.</_>
    <_>
      1. 0. 0. 0. 0. 8. 12. 5. 28. 0. 0. 0. 0. 0. 4. 67. 26. 0. 0. 0. 0.
      0. 2. 80. 0. 0. 0. 0. 0. 0. 0. 0. 1. 0. 0. 0. 0. 11. 27. 3. 187.
      13. 0. 0. 0. 1. 9. 59. 199. 33. 0. 0. 0. 0. 1. 106. 31. 1. 0. 0.
      0. 0. 0. 7. 0. 0. 0. 0. 0. 17. 27. 1. 185. 5. 0. 0. 0. 4. 13. 34.
      199. 26. 0. 0. 0. 0. 0. 28. 105. 6. 0. 0. 0. 0. 0. 8. 0. 0. 0. 0.
      0. 15. 22. 1. 124. 1. 0. 0. 0. 3. 13. 26. 199. 14. 0. 0. 0. 0. 0.
      20. 108. 5. 0. 0. 0. 0. 0. 3.</_>
    <_>
      6. 1. 0. 0. 0. 0. 1. 2. 11. 1. 0. 0. 0. 0. 2. 21. 137. 1. 0. 0. 0.
      0. 1. 137. 137. 0. 0. 0. 0. 0. 0. 137. 9. 0. 0. 0. 0. 0. 0. 3. 95.
      4. 0. 0. 0. 0. 0. 37. 137. 85. 2. 0. 0. 0. 0. 137. 107. 77. 58. 1.
      0. 0. 0. 75. 8. 0. 0. 0. 0. 0. 0. 4. 110. 9. 0. 0. 0. 0. 0. 23.
      137. 137. 17. 0. 0. 0. 0. 12. 13. 125. 137. 4. 0. 0. 0. 0. 3. 1.
      0. 0. 0. 0. 2. 3. 70. 24. 0. 0. 0. 0. 1. 5. 87. 57. 6. 0. 0. 0. 0.
      2. 2. 30. 43. 0. 0. 0. 0. 0.</_>
    <_>
      0. 0. 0. 0. 0. 0. 0. 0. 1. 4. 1. 1. 0. 0. 0. 0. 8. 12. 0. 0. 0. 0.
      0. 0. 1. 1. 0. 0. 0. 0. 0. 0. 0. 0. 23. 151. 16. 0. 0. 0. 21. 76.
      55. 120. 11. 0. 0. 1. 151. 151. 17. 3. 0. 0. 0. 2. 39. 21. 0. 0.
      0. 0. 0. 0. 0. 0. 78. 151. 6. 0. 0. 0. 83. 22. 37. 103. 14. 0. 0.
      29. 151. 57. 4. 2. 1. 0. 0. 101. 81. 6. 0. 0. 0. 0. 0. 11. 2. 1.
      49. 52. 3. 0. 0. 0. 151. 13. 20. 12. 0. 0. 0. 61. 151. 11. 3. 0.
      0. 0. 0. 136. 28. 3. 12. 5. 0. 0. 0. 11.</_>
    <_>
      0. 0. 1. 4. 2. 0. 0. 0. 67. 1. 0. 3. 1. 0. 0. 22. 173. 1. 0. 0. 0.
      0. 0. 138. 68. 0. 0. 0. 0. 0. 0. 48. 0. 0. 5. 14. 0. 0. 0. 0. 111.
      24. 4. 4. 0. 0. 1. 28. 173. 30. 0. 0. 0. 0. 0. 54. 77. 4. 0. 0. 0.
      0. 0. 6. 0. 0. 3. 6. 0. 0. 2. 52. 27. 3. 1. 1. 0. 0. 21. 173. 145.
      5. 0. 0. 0. 0. 6. 173. 24. 1. 0. 0. 0. 0. 0. 6. 0. 0. 0. 0. 0. 0.
      6. 173. 0. 0. 0. 0. 0. 0. 11. 173. 0. 0. 0. 0. 0. 0. 2. 53. 0. 0.
      0. 0. 0. 0. 0. 0.</_>
    <_>
      27. 29. 12. 2. 0. 0. 0. 0. 161. 36. 0. 0. 0. 0. 0. 9. 135. 9. 0.
      0. 0. 0. 0. 5. 1. 0. 0. 0. 0. 0. 0. 0. 58. 13. 1. 0. 0. 0. 1. 9.
      161. 26. 0. 0. 0. 0. 0. 57. 159. 8. 0. 0. 0. 0. 0. 22. 1. 0. 0. 0.
      0. 0. 0. 0. 49. 8. 0. 0. 0. 0. 1. 6. 161. 54. 0. 0. 0. 0. 0. 9.
      148. 31. 13. 2. 0. 0. 0. 3. 0. 0. 32. 14. 0. 0. 0. 0. 26. 6. 0. 0.
      0. 0. 0. 0. 161. 121. 9. 0. 0. 0. 0. 0. 51. 91. 148. 13. 0. 0. 0.
      0. 0. 0. 151. 57. 0. 0. 0. 0.</_>
    <_>
      17. 3. 1. 2. 2. 0. 0. 3. 151. 38. 0. 0. 0. 0. 0. 24. 151. 54. 0.
      0. 0. 0. 0. 12. 8. 5. 0. 0. 0. 0. 0. 1. 7. 8. 2. 2. 0. 0. 0. 0.
      111. 151. 6. 1. 1. 0. 0. 5. 151. 151. 0. 0. 0. 0. 0. 8. 41. 30. 0.
      0. 0. 0. 0. 2. 1. 2. 1. 1. 1. 0. 0. 0. 103. 32. 2. 1. 1. 1. 1. 23.
      151. 130. 0. 0. 0. 0. 0. 36. 70. 49. 3. 2. 0. 0. 0. 5. 2. 0. 0. 0.
      0. 0. 0. 0. 33. 31. 0. 0. 0. 0. 0. 1. 134. 151. 0. 0. 0. 0. 0. 0.
      44. 142. 35. 13. 0. 0. 0. 0.</_>
    <_>
      29. 3. 0. 0. 0. 0. 0. 6. 156. 6. 0. 0. 0. 0. 0. 95. 152. 2. 0. 0.
      0. 0. 0. 64. 3. 1. 0. 0. 0. 0. 0. 1. 52. 7. 0. 0. 0. 0. 0. 5. 156.
      52. 3. 0. 0. 0. 0. 44. 156. 48. 50. 1. 0. 0. 0. 11. 1. 4. 67. 11.
      0. 0. 0. 0. 25. 15. 0. 0. 0. 0. 0. 4. 134. 156. 30. 0. 0. 0. 0. 5.
      25. 156. 156. 3. 0. 0. 0. 1. 0. 15. 156. 35. 0. 0. 0. 0. 2. 1. 0.
      0. 0. 0. 1. 10. 43. 41. 3. 0. 0. 0. 1. 14. 27. 73. 45. 0. 0. 0. 0.
      1. 1. 18. 65. 3. 0. 0. 0. 0.</_>
    <_>
      2. 132. 67. 59. 1. 0. 0. 0. 3. 142. 69. 0. 0. 0. 0. 0. 4. 88. 8.
      0. 0. 0. 0. 0. 0. 3. 0. 0. 0. 0. 0. 0. 1. 67. 44. 22. 0. 0. 0. 0.
      25. 142. 78. 5. 0. 0. 0. 0. 121. 142. 6. 0. 0. 0. 0. 1. 8. 12. 0.
      0. 0. 0. 0. 0. 4. 34. 14. 7. 2. 2. 8. 7. 100. 32. 23. 15. 1. 1.
      20. 64. 142. 38. 1. 0. 0. 0. 1. 83. 12. 2. 0. 0. 0. 0. 0. 2. 2. 3.
      0. 0. 1. 7. 142. 56. 18. 0. 0. 0. 0. 0. 142. 142. 58. 0. 0. 0. 0.
      0. 26. 142. 1. 0. 0. 0. 0. 0. 0. 1.</_>
    <_>
      71. 96. 0. 0. 0. 0. 0. 0. 121. 164. 4. 0. 0. 0. 0. 0. 11. 119. 4.
      0. 0. 0. 0. 0. 0. 4. 0. 0. 0. 0. 0. 0. 13. 44. 4. 1. 5. 1. 0. 0.
      48. 164. 43. 1. 0. 0. 0. 0. 151. 164. 13. 0. 0. 0. 0. 2. 11. 13.
      0. 0. 0. 0. 0. 0. 0. 1. 2. 4. 13. 0. 0. 0. 144. 31. 10. 3. 4. 0.
      0. 21. 164. 34. 1. 0. 0. 0. 0. 43. 21. 1. 0. 0. 0. 0. 0. 2. 1. 0.
      0. 4. 11. 0. 0. 0. 162. 0. 0. 1. 2. 0. 0. 22. 164. 0. 0. 0. 0. 0.
      0. 38. 11. 0. 0. 0. 0. 0. 0. 1.</_>
    <_>
      26. 0. 0. 0. 0. 0. 23. 56. 164. 0. 0. 0. 0. 0. 38. 164. 44. 0. 0.
      0. 0. 22. 164. 71. 0. 0. 0. 0. 0. 49. 164. 0. 67. 0. 0. 0. 0. 0.
      10. 36. 164. 5. 0. 0. 0. 0. 0. 39. 129. 3. 0. 0. 0. 0. 6. 10. 1.
      0. 0. 0. 0. 3. 15. 0. 60. 0. 0. 0. 0. 0. 6. 23. 164. 12. 0. 0. 0.
      0. 0. 22. 131. 6. 0. 0. 0. 0. 0. 5. 1. 0. 0. 0. 0. 0. 0. 0. 55. 1.
      0. 0. 0. 0. 0. 9. 164. 0. 0. 0. 0. 0. 0. 37. 90. 0. 0. 0. 0. 0. 0.
      10. 1. 0. 0. 0. 0. 0. 0. 0.</_>
    <_>
      0. 0. 1. 8. 2. 0. 0. 0. 53. 2. 1. 5. 1. 0. 0. 22. 172. 1. 0. 0. 0.
      0. 0. 147. 67. 0. 0. 0. 0. 0. 0. 48. 0. 0. 1. 18. 2. 0. 0. 0. 102.
      24. 3. 7. 1. 0. 1. 32. 172. 32. 0. 0. 0. 0. 0. 76. 66. 1. 0. 0. 0.
      0. 0. 12. 0. 0. 1. 11. 1. 0. 7. 57. 23. 3. 0. 2. 0. 0. 37. 172.
      123. 4. 0. 0. 0. 0. 11. 172. 22. 0. 0. 0. 0. 0. 0. 18. 0. 0. 0. 0.
      0. 0. 17. 172. 0. 0. 0. 0. 0. 0. 26. 172. 0. 0. 0. 0. 0. 0. 6. 75.
      0. 0. 0. 0. 0. 0. 0. 2.</_>
    <_>
      1. 0. 0. 0. 0. 0. 0. 1. 19. 1. 0. 0. 0. 0. 0. 18. 144. 0. 0. 0. 0.
      0. 0. 144. 144. 0. 0. 0. 0. 0. 0. 129. 0. 0. 0. 0. 0. 0. 3. 4. 87.
      1. 0. 0. 0. 0. 2. 17. 144. 23. 0. 0. 0. 0. 0. 144. 105. 16. 0. 0.
      0. 0. 0. 93. 0. 0. 0. 0. 0. 0. 5. 10. 69. 4. 0. 0. 0. 0. 5. 28.
      144. 144. 2. 0. 0. 0. 0. 13. 51. 144. 38. 0. 0. 0. 0. 3. 0. 0. 0.
      0. 0. 0. 6. 13. 37. 1. 0. 0. 0. 0. 2. 27. 71. 87. 5. 0. 0. 0. 0.
      8. 5. 144. 61. 0. 0. 0. 0. 0.</_>
    <_>
      140. 140. 5. 0. 0. 0. 0. 0. 71. 125. 1. 0. 0. 0. 0. 0. 4. 9. 0. 0.
      0. 0. 0. 0. 0. 0. 0. 0. 0. 0. 0. 0. 91. 140. 1. 0. 0. 0. 6. 20.
      140. 140. 1. 0. 0. 0. 0. 13. 60. 23. 0. 0. 0. 0. 0. 1. 1. 0. 0. 0.
      0. 0. 0. 0. 77. 11. 0. 0. 0. 0. 20. 140. 140. 16. 0. 0. 0. 0. 2.
      140. 67. 2. 0. 0. 0. 0. 0. 19. 1. 0. 0. 0. 0. 0. 0. 0. 140. 7. 0.
      0. 0. 0. 10. 111. 100. 0. 0. 0. 0. 0. 0. 132. 7. 0. 0. 0. 0. 0. 0.
      11. 0. 0. 0. 0. 0. 0. 0. 0.</_>
    <_>
      0. 4. 140. 56. 0. 0. 0. 0. 1. 33. 140. 51. 0. 0. 0. 0. 0. 10. 140.
      94. 1. 1. 1. 1. 0. 6. 140. 61. 0. 0. 1. 2. 9. 7. 132. 33. 2. 9. 6.
      1. 72. 41. 93. 12. 1. 1. 2. 13. 11. 7. 34. 20. 2. 10. 28. 12. 1.
      3. 13. 4. 0. 2. 20. 10. 9. 2. 0. 0. 22. 42. 28. 8. 104. 13. 0. 0.
      2. 2. 30. 43. 27. 1. 0. 0. 0. 8. 49. 27. 0. 0. 0. 0. 0. 19. 40. 2.
      0. 0. 0. 0. 9. 65. 140. 54. 9. 0. 0. 0. 0. 4. 140. 88. 3. 0. 0. 0.
      0. 8. 140. 77. 0. 0. 0. 0. 0. 57. 140. 5.</_>
    <_>
      2. 28. 26. 17. 75. 16. 0. 0. 10. 71. 18. 4. 33. 19. 0. 0. 1. 2. 1.
      1. 119. 91. 0. 0. 96. 75. 0. 0. 64. 68. 1. 0. 7. 12. 6. 7. 119.
      119. 1. 1. 103. 67. 5. 3. 26. 19. 2. 7. 14. 5. 0. 1. 101. 69. 1.
      1. 20. 31. 0. 1. 115. 107. 0. 0. 1. 0. 0. 0. 119. 119. 5. 2. 75.
      2. 0. 0. 21. 70. 20. 38. 23. 0. 0. 0. 52. 65. 1. 7. 1. 2. 0. 0.
      73. 119. 0. 0. 0. 0. 0. 0. 87. 119. 1. 0. 9. 0. 0. 0. 35. 119. 11.
      11. 8. 1. 0. 0. 12. 41. 2. 6. 0. 0. 0. 0. 15. 91. 0. 0.</_>
    <_>
      0. 0. 0. 0. 0. 0. 0. 0. 0. 0. 0. 7. 8. 0. 0. 0. 66. 22. 1. 7. 8.
      0. 0. 8. 23. 3. 0. 0. 0. 0. 0. 5. 0. 0. 0. 2. 18. 0. 0. 0. 18. 5.
      4. 118. 158. 2. 0. 0. 158. 23. 8. 61. 41. 1. 0. 61. 67. 1. 0. 0.
      0. 0. 0. 29. 0. 0. 0. 1. 36. 5. 0. 0. 33. 5. 0. 26. 158. 91. 0. 0.
      158. 93. 1. 8. 73. 29. 0. 7. 67. 29. 0. 0. 0. 0. 0. 3. 0. 0. 0. 0.
      4. 1. 0. 0. 3. 1. 0. 0. 127. 131. 0. 0. 114. 137. 0. 0. 65. 135.
      0. 0. 44. 76. 0. 0. 0. 1. 0. 0.</_>
    <_>
      96. 94. 2. 0. 0. 0. 0. 2. 66. 73. 6. 0. 0. 0. 0. 0. 20. 24. 4. 0.
      0. 0. 0. 35. 11. 1. 0. 0. 0. 0. 23. 147. 73. 88. 9. 0. 0. 0. 0. 3.
      48. 147. 64. 0. 0. 0. 0. 1. 147. 68. 15. 0. 0. 0. 0. 115. 147. 11.
      0. 0. 0. 0. 11. 147. 9. 51. 27. 6. 6. 2. 0. 1. 146. 116. 23. 1. 1.
      0. 0. 11. 147. 60. 1. 0. 0. 0. 0. 21. 82. 22. 0. 0. 0. 0. 0. 12.
      2. 9. 3. 3. 15. 59. 52. 6. 45. 71. 2. 1. 7. 13. 0. 1. 20. 12. 0.
      0. 0. 0. 0. 0. 0. 0. 0. 0. 0. 0. 0. 0.</_>
    <_>
      0. 1. 131. 92. 0. 0. 0. 0. 2. 11. 131. 78. 0. 0. 0. 0. 1. 5. 131.
      111. 1. 1. 3. 1. 1. 4. 112. 52. 0. 0. 1. 4. 9. 5. 124. 68. 2. 9.
      6. 2. 74. 27. 84. 14. 0. 1. 3. 19. 13. 4. 16. 13. 1. 6. 35. 15. 1.
      2. 4. 1. 0. 2. 20. 13. 9. 0. 0. 1. 10. 37. 21. 9. 95. 9. 0. 0. 1.
      4. 24. 53. 28. 3. 0. 0. 0. 2. 54. 47. 0. 0. 0. 0. 0. 15. 91. 9. 0.
      0. 0. 0. 3. 55. 131. 48. 5. 0. 0. 0. 0. 1. 131. 131. 2. 0. 0. 0.
      0. 0. 131. 102. 0. 0. 0. 0. 0. 18. 131. 33.</_>
    <_>
      1. 0. 0. 0. 0. 2. 12. 24. 35. 0. 0. 0. 0. 1. 29. 151. 39. 0. 0. 0.
      0. 0. 78. 151. 1. 0. 0. 0. 0. 0. 66. 132. 30. 0. 0. 0. 0. 0. 2.
      60. 151. 5. 0. 0. 0. 0. 1. 151. 111. 2. 0. 0. 0. 0. 1. 151. 5. 0.
      0. 0. 0. 0. 2. 18. 62. 3. 0. 0. 0. 0. 2. 19. 151. 33. 0. 0. 0. 0.
      0. 27. 151. 16. 0. 0. 0. 0. 0. 18. 3. 0. 0. 0. 0. 0. 0. 1. 36. 1.
      0. 0. 0. 0. 6. 11. 151. 32. 0. 0. 0. 0. 0. 4. 144. 25. 0. 0. 0. 0.
      0. 0. 3. 1. 0. 0. 0. 0. 0. 0.</_>
    <_>
      91. 29. 0. 0. 0. 6. 8. 4. 193. 147. 0. 0. 0. 0. 0. 1. 69. 25. 0.
      0. 0. 0. 0. 0. 0. 0. 0. 0. 0. 0. 0. 0. 70. 3. 0. 0. 0. 17. 14. 16.
      193. 34. 0. 0. 0. 0. 1. 31. 149. 11. 0. 0. 0. 0. 0. 7. 0. 1. 0. 0.
      0. 0. 0. 0. 54. 0. 0. 0. 0. 11. 14. 19. 193. 18. 0. 0. 0. 0. 1.
      47. 148. 8. 0. 0. 0. 0. 0. 8. 0. 0. 0. 0. 0. 0. 0. 0. 50. 1. 0. 0.
      0. 2. 4. 32. 193. 2. 0. 0. 0. 0. 0. 102. 65. 2. 0. 0. 0. 0. 0. 12.
      0. 0. 0. 0. 0. 0. 0. 0.</_>
    <_>
      9. 1. 2. 1. 0. 8. 21. 31. 41. 0. 0. 0. 0. 0. 11. 130. 31. 0. 0. 0.
      0. 4. 105. 130. 0. 0. 0. 0. 0. 93. 130. 17. 11. 0. 0. 0. 18. 130.
      51. 18. 130. 7. 0. 0. 5. 19. 6. 130. 101. 3. 0. 0. 0. 0. 3. 127.
      1. 0. 0. 0. 0. 15. 17. 6. 5. 1. 0. 0. 115. 130. 7. 2. 130. 54. 0.
      0. 42. 62. 17. 44. 130. 25. 0. 0. 0. 0. 0. 18. 1. 0. 0. 0. 0. 0.
      0. 0. 0. 0. 0. 0. 32. 81. 14. 1. 40. 2. 0. 0. 10. 60. 82. 85. 41.
      1. 0. 0. 0. 0. 3. 43. 1. 0. 0. 0. 0. 0. 0. 0.</_>
    <_>
      31. 2. 0. 0. 0. 0. 1. 21. 149. 3. 0. 0. 0. 0. 1. 23. 170. 17. 0.
      0. 0. 0. 0. 2. 34. 3. 0. 0. 0. 0. 0. 0. 60. 2. 0. 0. 0. 0. 0. 14.
      170. 5. 0. 0. 0. 0. 0. 7. 170. 13. 0. 0. 0. 0. 0. 8. 50. 3. 0. 0.
      0. 0. 0. 1. 45. 23. 0. 0. 0. 0. 0. 3. 138. 43. 2. 0. 0. 0. 0. 3.
      170. 107. 0. 0. 0. 0. 0. 14. 44. 20. 0. 0. 0. 0. 0. 2. 17. 20. 2.
      0. 0. 28. 47. 4. 23. 54. 15. 0. 0. 7. 2. 0. 137. 170. 4. 0. 0. 0.
      0. 0. 32. 142. 18. 0. 0. 0. 0. 0.</_>
    <_>
      0. 0. 110. 119. 0. 0. 0. 0. 1. 2. 121. 121. 0. 0. 0. 1. 1. 2. 121.
      121. 0. 0. 5. 6. 1. 1. 38. 48. 0. 0. 4. 10. 5. 3. 121. 121. 0. 0.
      2. 1. 60. 14. 97. 56. 0. 0. 2. 19. 16. 2. 9. 13. 0. 0. 28. 35. 1.
      0. 1. 0. 0. 2. 26. 13. 7. 1. 13. 10. 0. 18. 41. 10. 106. 10. 1. 0.
      0. 5. 8. 36. 38. 4. 0. 0. 0. 0. 39. 56. 0. 0. 0. 0. 0. 1. 81. 66.
      0. 0. 0. 0. 0. 88. 105. 7. 19. 0. 0. 0. 0. 11. 85. 121. 5. 0. 0.
      0. 0. 0. 121. 121. 0. 0. 0. 0. 0. 0. 110. 94.</_>
    <_>
      1. 3. 17. 75. 7. 0. 0. 0. 33. 11. 16. 37. 5. 1. 3. 7. 49. 23. 24.
      1. 0. 0. 15. 15. 184. 26. 1. 0. 0. 0. 1. 18. 4. 3. 9. 54. 9. 0. 0.
      2. 16. 15. 36. 38. 17. 1. 0. 2. 103. 70. 43. 8. 2. 0. 0. 4. 184.
      22. 1. 0. 0. 0. 0. 33. 3. 8. 4. 10. 8. 1. 1. 6. 4. 2. 2. 14. 41.
      12. 6. 8. 173. 9. 1. 2. 3. 4. 5. 38. 184. 2. 0. 0. 0. 0. 0. 106.
      6. 14. 4. 6. 1. 0. 0. 0. 4. 1. 2. 12. 5. 1. 1. 1. 184. 0. 0. 0. 0.
      0. 1. 36. 184. 0. 0. 0. 0. 0. 0. 83.</_>
    <_>
      18. 1. 0. 0. 0. 0. 0. 6. 160. 0. 0. 0. 0. 0. 0. 108. 156. 0. 0. 0.
      0. 0. 0. 77. 4. 0. 0. 0. 0. 0. 0. 2. 48. 2. 0. 1. 1. 0. 0. 6. 160.
      11. 0. 0. 0. 0. 0. 75. 160. 2. 0. 0. 0. 0. 0. 32. 2. 0. 0. 0. 0.
      0. 0. 0. 44. 4. 0. 0. 0. 0. 3. 9. 160. 65. 0. 0. 0. 0. 0. 8. 151.
      45. 0. 0. 0. 0. 0. 2. 2. 1. 0. 0. 0. 0. 0. 0. 17. 2. 0. 0. 0. 0.
      2. 16. 160. 137. 0. 0. 0. 0. 0. 4. 70. 160. 5. 0. 0. 0. 0. 0. 1.
      35. 8. 0. 0. 0. 0. 0.</_>
    <_>
      2. 1. 2. 1. 0. 1. 1. 1. 32. 0. 0. 0. 0. 0. 0. 28. 153. 0. 0. 0. 0.
      0. 0. 153. 122. 0. 0. 0. 0. 0. 0. 80. 2. 0. 0. 0. 0. 1. 7. 13. 88.
      1. 0. 0. 0. 0. 1. 46. 153. 15. 0. 0. 0. 0. 0. 114. 101. 7. 0. 0.
      0. 0. 0. 35. 7. 0. 0. 0. 0. 0. 1. 20. 74. 10. 0. 0. 0. 0. 0. 28.
      153. 148. 0. 0. 0. 0. 0. 6. 105. 67. 0. 0. 0. 0. 0. 1. 19. 2. 0.
      0. 0. 0. 0. 6. 29. 4. 0. 0. 0. 0. 0. 15. 153. 111. 0. 0. 0. 0. 0.
      2. 142. 98. 0. 0. 0. 0. 0. 0.</_>
    <_>
      0. 153. 70. 1. 0. 0. 0. 0. 17. 153. 12. 0. 0. 0. 0. 0. 10. 17. 0.
      0. 0. 0. 0. 0. 1. 0. 0. 0. 0. 0. 0. 0. 29. 113. 42. 21. 0. 0. 0.
      1. 153. 153. 8. 0. 0. 0. 0. 4. 94. 22. 0. 0. 0. 0. 0. 1. 2. 0. 0.
      0. 0. 0. 0. 0. 43. 7. 13. 16. 0. 0. 18. 124. 153. 11. 1. 0. 0. 0.
      5. 153. 101. 1. 0. 0. 0. 0. 0. 20. 1. 0. 0. 0. 0. 0. 0. 0. 1. 0.
      0. 0. 0. 0. 114. 153. 23. 0. 0. 0. 0. 0. 19. 153. 13. 0. 0. 0. 0.
      0. 1. 18. 1. 0. 0. 0. 0. 0. 0. 0.</_>
    <_>
      2. 30. 27. 17. 66. 13. 0. 0. 7. 63. 16. 3. 35. 22. 0. 0. 0. 1. 1.
      1. 112. 101. 0. 0. 90. 78. 0. 0. 65. 76. 1. 0. 8. 16. 7. 9. 119.
      119. 1. 1. 97. 70. 6. 3. 24. 18. 2. 5. 12. 4. 1. 1. 99. 70. 0. 1.
      16. 28. 1. 1. 119. 114. 0. 0. 2. 0. 0. 0. 119. 119. 5. 2. 79. 2.
      0. 0. 20. 72. 20. 34. 22. 0. 0. 0. 50. 66. 1. 6. 0. 1. 0. 0. 68.
      119. 0. 0. 0. 0. 0. 0. 86. 119. 1. 0. 8. 0. 0. 0. 34. 119. 12. 11.
      7. 0. 0. 0. 12. 41. 2. 5. 0. 0. 0. 0. 10. 89. 1. 0.</_>
    <_>
      143. 42. 0. 0. 9. 2. 0. 0. 77. 29. 0. 1. 0. 0. 0. 0. 35. 21. 5.
      14. 2. 0. 0. 0. 143. 69. 2. 1. 0. 0. 0. 0. 143. 12. 0. 0. 21. 5.
      0. 6. 133. 9. 1. 8. 5. 0. 0. 2. 38. 27. 14. 67. 24. 0. 0. 0. 143.
      62. 6. 4. 0. 0. 0. 0. 143. 4. 0. 1. 25. 2. 0. 14. 109. 2. 0. 9.
      28. 5. 1. 26. 54. 15. 4. 51. 96. 11. 1. 6. 143. 30. 2. 3. 1. 0. 0.
      7. 143. 22. 0. 2. 18. 1. 0. 4. 100. 3. 0. 0. 18. 17. 1. 18. 28. 0.
      0. 1. 48. 66. 16. 22. 143. 0. 0. 0. 0. 2. 5. 53.</_>
    <_>
      0. 0. 0. 0. 0. 0. 0. 0. 0. 4. 5. 1. 0. 0. 0. 0. 6. 18. 2. 0. 0. 0.
      0. 0. 2. 2. 0. 0. 0. 0. 0. 0. 0. 0. 158. 51. 0. 0. 0. 0. 20. 59.
      158. 84. 0. 0. 0. 1. 158. 158. 46. 4. 0. 0. 0. 4. 37. 17. 0. 0. 0.
      0. 0. 0. 1. 8. 158. 45. 1. 1. 2. 2. 121. 34. 100. 39. 0. 0. 0. 14.
      158. 59. 8. 1. 0. 0. 0. 62. 67. 5. 0. 0. 0. 0. 0. 7. 0. 1. 1. 13.
      6. 1. 3. 1. 95. 50. 7. 17. 3. 0. 0. 1. 158. 114. 0. 0. 0. 0. 0. 6.
      58. 16. 0. 0. 0. 0. 0. 1.</_>
    <_>
      0. 0. 3. 11. 4. 0. 0. 0. 17. 0. 0. 7. 11. 0. 0. 12. 153. 0. 0. 0.
      1. 0. 0. 90. 153. 0. 0. 0. 0. 0. 0. 36. 0. 0. 11. 12. 0. 0. 0. 0.
      83. 3. 2. 7. 1. 0. 0. 24. 153. 5. 0. 0. 0. 0. 0. 153. 101. 2. 0.
      0. 0. 0. 0. 65. 0. 4. 7. 5. 0. 0. 0. 0. 90. 35. 4. 3. 0. 0. 0. 1.
      153. 140. 0. 0. 0. 0. 0. 7. 102. 50. 0. 0. 0. 0. 0. 3. 3. 13. 2.
      6. 1. 0. 0. 0. 20. 30. 7. 12. 1. 0. 0. 0. 153. 143. 2. 0. 0. 0. 0.
      0. 152. 49. 0. 0. 0. 0. 0. 0.</_>
    <_>
      2. 2. 1. 1. 1. 0. 1. 3. 153. 12. 0. 0. 0. 0. 1. 52. 153. 2. 0. 0.
      0. 0. 0. 89. 19. 0. 0. 0. 0. 0. 0. 12. 25. 2. 0. 0. 1. 0. 1. 19.
      153. 7. 0. 0. 0. 0. 2. 153. 153. 1. 0. 0. 0. 0. 0. 153. 9. 0. 0.
      0. 0. 0. 0. 4. 35. 17. 2. 2. 1. 0. 0. 2. 153. 93. 1. 0. 0. 0. 0.
      28. 153. 28. 0. 0. 0. 0. 0. 25. 2. 0. 0. 0. 0. 0. 1. 1. 12. 5. 1.
      2. 6. 3. 2. 3. 153. 55. 1. 1. 1. 1. 1. 8. 153. 28. 0. 0. 0. 0. 0.
      0. 3. 1. 0. 0. 0. 0. 0. 0.</_>
    <_>
      0. 0. 133. 133. 0. 0. 0. 0. 0. 0. 133. 133. 0. 0. 1. 2. 2. 11.
      133. 100. 0. 0. 9. 12. 3. 12. 131. 45. 0. 0. 6. 12. 9. 2. 133.
      133. 0. 0. 4. 4. 39. 4. 68. 49. 0. 0. 15. 51. 5. 2. 10. 11. 0. 1.
      70. 53. 1. 2. 2. 0. 0. 1. 31. 26. 11. 1. 5. 5. 0. 20. 33. 11. 98.
      11. 0. 0. 0. 3. 11. 54. 27. 1. 0. 0. 0. 6. 49. 26. 0. 0. 0. 0. 2.
      14. 27. 1. 0. 0. 0. 0. 7. 43. 24. 48. 10. 0. 0. 0. 0. 2. 59. 133.
      3. 0. 0. 0. 0. 15. 133. 58. 0. 0. 0. 0. 0. 37. 133. 0.</_>
    <_>
      2. 1. 2. 105. 153. 5. 0. 0. 52. 12. 6. 33. 40. 1. 0. 2. 24. 1. 0.
      0. 0. 0. 1. 11. 33. 0. 0. 0. 0. 1. 2. 47. 5. 1. 1. 32. 153. 38. 0.
      0. 97. 19. 3. 7. 49. 7. 0. 10. 39. 16. 8. 0. 0. 0. 1. 21. 102. 2.
      0. 0. 0. 0. 1. 129. 1. 2. 1. 22. 153. 34. 0. 0. 24. 61. 34. 9. 66.
      5. 0. 1. 49. 91. 57. 0. 0. 0. 0. 5. 153. 76. 1. 0. 0. 0. 0. 47. 0.
      0. 0. 8. 153. 35. 0. 0. 19. 8. 8. 5. 81. 8. 1. 14. 34. 28. 6. 0.
      0. 0. 11. 30. 150. 114. 0. 0. 0. 0. 3. 8.</_>
    <_>
      2. 11. 6. 0. 0. 3. 10. 6. 1. 14. 12. 1. 3. 25. 13. 2. 9. 59. 7. 0.
      0. 12. 14. 3. 15. 106. 11. 0. 0. 2. 2. 1. 0. 7. 12. 5. 7. 8. 3. 0.
      4. 33. 62. 12. 10. 17. 10. 3. 49. 49. 16. 0. 0. 17. 31. 18. 13.
      45. 5. 0. 1. 38. 47. 8. 0. 0. 0. 0. 4. 42. 112. 3. 4. 4. 3. 2. 6.
      36. 137. 24. 63. 9. 1. 0. 0. 3. 55. 91. 22. 1. 0. 2. 21. 24. 23.
      13. 0. 0. 0. 0. 0. 145. 184. 1. 0. 0. 0. 0. 0. 110. 184. 7. 2. 0.
      0. 0. 0. 53. 184. 29. 2. 0. 0. 1. 7. 49. 184. 12.</_>
    <_>
      25. 5. 0. 0. 0. 0. 0. 5. 14. 8. 1. 0. 0. 0. 0. 7. 42. 2. 0. 0. 0.
      0. 0. 144. 78. 0. 0. 0. 0. 0. 0. 144. 23. 28. 4. 0. 0. 0. 0. 0.
      71. 17. 7. 0. 0. 0. 0. 10. 144. 6. 0. 0. 0. 0. 0. 144. 55. 2. 0.
      0. 0. 0. 0. 144. 37. 34. 1. 0. 2. 2. 0. 1. 94. 14. 1. 0. 0. 0. 0.
      10. 144. 136. 0. 0. 0. 0. 0. 8. 87. 74. 0. 0. 0. 0. 0. 4. 40. 48.
      4. 3. 24. 6. 0. 0. 43. 26. 6. 1. 0. 0. 0. 2. 144. 144. 5. 0. 0. 0.
      0. 0. 144. 77. 0. 0. 0. 0. 0. 0.</_>
    <_>
      0. 0. 134. 92. 0. 0. 0. 0. 0. 2. 134. 134. 0. 0. 1. 0. 1. 24. 134.
      45. 0. 0. 3. 2. 1. 9. 134. 72. 0. 0. 3. 3. 5. 2. 134. 118. 0. 2.
      4. 2. 24. 4. 98. 72. 0. 0. 18. 39. 5. 9. 56. 10. 0. 1. 78. 34. 2.
      4. 21. 6. 0. 1. 39. 23. 7. 2. 5. 6. 3. 25. 25. 6. 87. 17. 0. 0. 1.
      4. 15. 36. 28. 2. 0. 0. 0. 2. 38. 24. 0. 0. 0. 0. 0. 9. 40. 6. 3.
      0. 0. 0. 1. 40. 66. 46. 17. 1. 0. 0. 0. 4. 134. 107. 6. 0. 0. 0.
      0. 2. 134. 55. 0. 0. 0. 0. 0. 13. 134. 35.</_>
    <_>
      0. 0. 65. 88. 13. 2. 0. 0. 102. 38. 17. 47. 4. 1. 0. 8. 158. 46.
      0. 0. 0. 0. 0. 11. 12. 1. 0. 0. 0. 0. 0. 1. 0. 0. 1. 18. 20. 64.
      17. 0. 123. 50. 1. 4. 7. 60. 11. 21. 158. 95. 0. 0. 0. 0. 1. 46.
      62. 6. 0. 0. 0. 0. 0. 5. 1. 0. 0. 0. 2. 51. 19. 10. 40. 1. 0. 0.
      1. 50. 74. 158. 158. 2. 0. 0. 0. 0. 8. 158. 31. 0. 0. 0. 0. 0. 0.
      19. 25. 0. 0. 1. 1. 2. 8. 84. 39. 0. 0. 0. 0. 1. 27. 158. 15. 0.
      0. 0. 0. 0. 5. 130. 2. 0. 0. 0. 0. 0. 0. 4.</_>
    <_>
      53. 167. 7. 1. 1. 0. 0. 0. 75. 167. 0. 0. 0. 0. 0. 0. 9. 16. 0. 0.
      0. 0. 0. 0. 0. 0. 0. 0. 0. 0. 0. 0. 66. 117. 5. 2. 4. 8. 45. 17.
      167. 167. 0. 0. 0. 0. 3. 23. 99. 37. 0. 0. 0. 0. 0. 0. 1. 0. 0. 0.
      0. 0. 0. 0. 40. 1. 0. 0. 0. 10. 82. 41. 167. 8. 0. 0. 0. 0. 7.
      105. 144. 5. 0. 0. 0. 0. 0. 13. 1. 0. 0. 0. 0. 0. 0. 0. 38. 3. 0.
      0. 1. 10. 9. 8. 167. 28. 0. 0. 0. 0. 1. 33. 85. 7. 0. 0. 0. 0. 0.
      10. 1. 0. 0. 0. 0. 0. 0. 0.</_>
    <_>
      55. 7. 0. 0. 0. 1. 0. 6. 151. 71. 0. 0. 0. 0. 0. 14. 128. 32. 0.
      0. 0. 0. 0. 5. 3. 1. 0. 0. 0. 0. 0. 0. 58. 3. 0. 0. 0. 1. 1. 8.
      151. 31. 0. 0. 0. 0. 0. 52. 151. 15. 0. 0. 0. 0. 0. 28. 5. 1. 0.
      0. 0. 0. 0. 1. 42. 15. 1. 1. 0. 0. 0. 3. 151. 151. 0. 0. 0. 0. 0.
      10. 151. 129. 0. 0. 0. 0. 0. 4. 7. 6. 0. 0. 0. 0. 0. 1. 10. 4. 0.
      0. 0. 0. 1. 8. 151. 91. 0. 0. 0. 0. 0. 2. 151. 129. 0. 0. 0. 0. 0.
      0. 23. 15. 0. 0. 0. 0. 0. 0.</_>
    <_>
      0. 2. 155. 23. 0. 0. 0. 0. 1. 1. 49. 39. 0. 0. 0. 0. 2. 1. 2. 1.
      0. 0. 0. 0. 0. 0. 0. 0. 0. 0. 0. 0. 1. 5. 155. 43. 3. 3. 1. 2. 54.
      31. 141. 106. 12. 16. 8. 12. 155. 42. 11. 4. 0. 1. 2. 33. 25. 0.
      0. 0. 0. 0. 0. 3. 18. 15. 14. 3. 2. 7. 8. 19. 49. 5. 2. 6. 7. 33.
      51. 155. 155. 9. 0. 0. 0. 1. 10. 155. 35. 0. 0. 0. 0. 0. 0. 17.
      47. 13. 2. 1. 0. 0. 1. 99. 51. 1. 0. 0. 0. 0. 3. 155. 32. 0. 0. 0.
      0. 0. 0. 155. 2. 0. 0. 0. 0. 0. 0. 4.</_>
    <_>
      20. 19. 4. 14. 12. 0. 0. 0. 4. 2. 2. 83. 132. 0. 0. 2. 132. 5. 2.
      27. 69. 1. 0. 49. 99. 6. 14. 13. 0. 0. 0. 13. 18. 44. 7. 22. 19.
      0. 0. 0. 18. 3. 3. 93. 132. 1. 0. 5. 132. 10. 2. 15. 42. 1. 0. 52.
      48. 9. 35. 104. 21. 0. 0. 7. 18. 35. 6. 20. 23. 0. 0. 0. 27. 7. 4.
      79. 132. 0. 0. 0. 132. 33. 3. 15. 28. 0. 0. 1. 21. 8. 5. 61. 132.
      4. 0. 0. 6. 28. 6. 27. 25. 0. 0. 0. 36. 11. 7. 112. 123. 2. 1. 7.
      132. 19. 4. 12. 10. 2. 0. 24. 15. 1. 0. 4. 121. 22. 0. 3.</_>
    <_>
      16. 82. 148. 50. 0. 0. 0. 0. 101. 148. 22. 0. 0. 0. 0. 0. 30. 28.
      0. 0. 0. 0. 0. 0. 1. 0. 0. 0. 0. 0. 0. 0. 52. 79. 30. 10. 0. 0. 1.
      1. 148. 120. 1. 0. 0. 0. 0. 6. 126. 18. 0. 0. 0. 0. 0. 3. 1. 0. 0.
      0. 0. 0. 0. 0. 41. 24. 4. 1. 0. 18. 148. 62. 148. 10. 0. 0. 0. 0.
      33. 148. 95. 0. 0. 0. 0. 0. 0. 34. 1. 0. 0. 0. 0. 0. 0. 0. 1. 0.
      0. 0. 0. 20. 148. 38. 18. 0. 0. 0. 0. 0. 71. 144. 8. 0. 0. 0. 0.
      0. 0. 20. 0. 0. 0. 0. 0. 0. 0. 0.</_>
    <_>
      1. 1. 29. 158. 4. 0. 0. 0. 23. 6. 20. 53. 0. 0. 0. 16. 18. 14. 11.
      2. 1. 8. 21. 22. 158. 2. 0. 0. 0. 6. 13. 93. 9. 2. 18. 52. 4. 0.
      2. 13. 25. 14. 28. 27. 13. 1. 1. 12. 74. 66. 33. 8. 2. 0. 0. 7.
      158. 10. 0. 0. 0. 0. 0. 94. 16. 1. 1. 4. 4. 0. 3. 27. 4. 1. 2. 11.
      32. 16. 11. 14. 141. 9. 1. 2. 3. 4. 9. 41. 158. 1. 0. 0. 0. 0. 0.
      136. 19. 2. 1. 3. 1. 0. 0. 3. 1. 1. 2. 4. 2. 2. 3. 2. 143. 1. 1.
      0. 0. 0. 2. 80. 158. 0. 0. 0. 0. 0. 0. 158.</_>
    <_>
      5. 11. 0. 0. 3. 77. 45. 1. 26. 149. 14. 0. 1. 33. 20. 1. 13. 101.
      11. 0. 0. 0. 0. 0. 0. 0. 0. 0. 0. 0. 0. 0. 1. 1. 0. 0. 23. 149.
      149. 0. 67. 109. 3. 0. 135. 149. 43. 4. 149. 114. 2. 0. 9. 10. 1.
      14. 6. 0. 0. 0. 0. 0. 0. 2. 0. 0. 0. 0. 54. 43. 13. 0. 44. 2. 0.
      0. 149. 149. 5. 13. 149. 15. 0. 0. 24. 27. 3. 38. 17. 1. 0. 0. 0.
      0. 0. 3. 0. 0. 0. 0. 10. 6. 0. 0. 2. 0. 0. 0. 49. 37. 0. 0. 9. 2.
      0. 0. 4. 5. 0. 1. 0. 0. 0. 0. 0. 0. 0. 0.</_>
    <_>
      1. 0. 8. 163. 9. 0. 0. 2. 22. 4. 9. 62. 1. 0. 0. 41. 28. 23. 7. 1.
      0. 1. 12. 43. 163. 5. 0. 0. 0. 1. 12. 98. 5. 0. 3. 61. 9. 0. 1.
      29. 16. 9. 14. 23. 17. 1. 1. 33. 78. 62. 19. 7. 2. 0. 0. 7. 163.
      13. 0. 0. 0. 0. 0. 64. 20. 1. 0. 4. 6. 0. 2. 37. 4. 1. 1. 8. 38.
      13. 10. 15. 133. 5. 1. 2. 3. 2. 7. 37. 163. 1. 0. 0. 0. 0. 0. 141.
      22. 3. 1. 2. 1. 0. 0. 5. 1. 0. 0. 2. 5. 4. 5. 1. 128. 0. 0. 0. 1.
      0. 3. 58. 163. 0. 0. 0. 0. 0. 0. 157.</_>
    <_>
      0. 0. 0. 0. 0. 0. 0. 0. 0. 0. 0. 8. 16. 0. 0. 0. 30. 2. 0. 4. 5.
      0. 0. 0. 13. 0. 0. 0. 0. 0. 0. 0. 0. 0. 0. 7. 4. 0. 0. 0. 15. 4.
      2. 145. 145. 0. 0. 0. 145. 16. 4. 50. 43. 0. 0. 25. 105. 1. 0. 0.
      0. 0. 0. 11. 0. 0. 0. 3. 7. 1. 0. 0. 28. 7. 1. 56. 145. 57. 0. 0.
      145. 145. 7. 14. 58. 16. 0. 13. 65. 103. 18. 0. 0. 0. 0. 4. 0. 0.
      0. 0. 1. 2. 0. 0. 2. 3. 0. 0. 121. 145. 0. 0. 32. 145. 18. 3. 73.
      64. 0. 0. 41. 145. 19. 0. 0. 0. 0. 0.</_>
    <_>
      1. 1. 14. 163. 7. 0. 0. 0. 22. 6. 19. 69. 1. 1. 2. 15. 20. 10. 5.
      2. 1. 8. 37. 24. 163. 2. 0. 0. 0. 2. 16. 113. 9. 2. 11. 87. 8. 0.
      0. 14. 25. 18. 24. 15. 9. 1. 0. 10. 78. 59. 21. 3. 1. 0. 0. 5.
      163. 9. 0. 0. 0. 0. 0. 50. 14. 1. 1. 6. 4. 1. 1. 38. 6. 2. 2. 7.
      26. 18. 9. 15. 137. 10. 1. 1. 1. 3. 5. 37. 163. 1. 0. 0. 0. 0. 0.
      116. 22. 1. 1. 3. 1. 0. 0. 6. 2. 0. 2. 4. 3. 4. 3. 2. 145. 0. 0.
      0. 0. 1. 2. 66. 163. 0. 0. 0. 0. 0. 0. 147.</_>
    <_>
      0. 0. 0. 146. 146. 0. 0. 0. 2. 1. 1. 62. 108. 18. 4. 2. 47. 3. 1.
      3. 6. 11. 12. 67. 13. 0. 0. 0. 1. 3. 14. 35. 0. 0. 0. 145. 146. 0.
      0. 0. 12. 10. 6. 73. 90. 1. 0. 1. 146. 31. 5. 10. 5. 0. 0. 11. 35.
      2. 1. 8. 8. 3. 2. 8. 0. 0. 1. 146. 146. 1. 0. 0. 18. 3. 1. 18.
      106. 17. 1. 7. 146. 24. 4. 4. 7. 3. 1. 18. 23. 9. 23. 56. 4. 0. 0.
      0. 0. 6. 5. 63. 100. 0. 0. 0. 8. 11. 4. 29. 67. 2. 0. 0. 89. 51.
      4. 9. 9. 0. 0. 1. 11. 8. 9. 35. 45. 5. 0. 0.</_>
    <_>
      1. 3. 3. 135. 134. 0. 0. 0. 53. 22. 6. 41. 16. 0. 0. 1. 56. 2. 0.
      0. 0. 0. 0. 17. 69. 0. 0. 0. 0. 0. 4. 103. 9. 2. 2. 45. 135. 36.
      0. 1. 131. 14. 3. 7. 18. 3. 0. 9. 90. 23. 7. 0. 0. 0. 0. 17. 135.
      29. 0. 0. 0. 0. 0. 33. 5. 0. 0. 0. 135. 135. 0. 2. 64. 33. 13. 0.
      30. 28. 1. 5. 57. 60. 50. 1. 0. 0. 0. 1. 135. 64. 2. 0. 0. 0. 0.
      8. 0. 0. 0. 16. 135. 76. 0. 0. 15. 10. 3. 6. 78. 20. 3. 10. 38.
      13. 6. 0. 0. 0. 9. 37. 119. 77. 0. 0. 0. 0. 1. 51.</_>
    <_>
      1. 3. 2. 85. 138. 3. 0. 0. 51. 26. 4. 23. 25. 0. 0. 1. 51. 4. 0.
      0. 0. 0. 0. 9. 72. 0. 0. 0. 0. 0. 0. 71. 3. 2. 1. 15. 138. 24. 0.
      0. 111. 24. 2. 7. 48. 2. 0. 6. 92. 14. 2. 0. 0. 0. 0. 11. 138. 2.
      0. 0. 0. 0. 0. 59. 3. 0. 0. 4. 138. 117. 0. 1. 61. 44. 6. 2. 52.
      36. 1. 3. 62. 84. 26. 0. 0. 0. 0. 2. 138. 100. 2. 0. 0. 0. 0. 21.
      0. 0. 0. 4. 138. 91. 0. 0. 16. 14. 2. 3. 125. 36. 1. 8. 30. 32. 4.
      0. 0. 0. 7. 40. 60. 113. 2. 0. 0. 0. 13. 52.</_>
    <_>
      109. 1. 0. 1. 1. 0. 1. 119. 151. 60. 0. 0. 0. 0. 3. 48. 157. 109.
      0. 0. 0. 0. 0. 1. 19. 7. 0. 0. 0. 0. 0. 0. 107. 0. 0. 0. 0. 1. 2.
      117. 109. 16. 0. 0. 4. 10. 9. 42. 157. 64. 0. 0. 0. 0. 0. 4. 56.
      8. 0. 0. 0. 0. 0. 0. 109. 0. 0. 0. 2. 3. 2. 77. 81. 1. 0. 0. 16.
      24. 4. 36. 157. 3. 0. 0. 1. 1. 0. 45. 61. 0. 0. 0. 0. 0. 0. 5. 87.
      0. 0. 1. 2. 1. 0. 28. 76. 0. 0. 2. 13. 5. 0. 20. 157. 0. 0. 0. 0.
      0. 0. 42. 38. 0. 0. 0. 0. 0. 0. 4.</_>
    <_>
      9. 0. 1. 0. 0. 34. 72. 95. 159. 1. 0. 0. 0. 48. 79. 85. 159. 6. 0.
      0. 0. 0. 2. 53. 9. 0. 0. 0. 0. 0. 0. 1. 3. 0. 0. 0. 0. 18. 28. 41.
      155. 12. 0. 0. 0. 28. 41. 31. 159. 71. 0. 0. 0. 0. 1. 14. 28. 7.
      0. 0. 0. 0. 0. 2. 0. 0. 0. 0. 2. 10. 35. 23. 97. 2. 0. 0. 2. 14.
      21. 53. 159. 16. 0. 0. 0. 0. 0. 106. 36. 2. 0. 0. 0. 0. 0. 9. 0.
      0. 0. 5. 18. 11. 14. 12. 123. 0. 0. 1. 12. 7. 2. 85. 159. 0. 0. 0.
      0. 0. 0. 119. 7. 0. 0. 0. 0. 0. 0. 6.</_>
    <_>
      11. 19. 24. 6. 30. 13. 2. 4. 134. 41. 4. 0. 0. 0. 0. 2. 82. 10. 4.
      2. 1. 0. 0. 5. 33. 6. 5. 14. 18. 2. 0. 8. 23. 12. 8. 4. 57. 154.
      35. 5. 154. 18. 2. 0. 0. 12. 9. 22. 67. 11. 19. 26. 1. 0. 0. 6.
      92. 5. 20. 26. 2. 0. 0. 38. 3. 0. 0. 0. 42. 154. 57. 4. 83. 27. 6.
      0. 32. 143. 23. 22. 31. 31. 31. 29. 2. 0. 0. 3. 141. 6. 4. 10. 1.
      0. 0. 62. 0. 0. 0. 0. 79. 154. 1. 0. 1. 10. 3. 1. 120. 154. 6. 0.
      13. 36. 13. 2. 4. 47. 4. 0. 41. 16. 1. 0. 0. 0. 0. 3.</_>
    <_>
      38. 122. 4. 0. 0. 0. 1. 2. 14. 166. 9. 0. 0. 0. 0. 0. 4. 13. 0. 0.
      0. 0. 0. 0. 1. 0. 0. 0. 0. 0. 0. 0. 57. 167. 9. 0. 0. 20. 69. 27.
      167. 167. 13. 0. 0. 1. 5. 31. 95. 42. 0. 0. 0. 0. 0. 0. 1. 0. 0.
      0. 0. 0. 0. 0. 41. 1. 0. 0. 0. 25. 66. 41. 167. 10. 0. 0. 0. 1. 9.
      113. 151. 6. 0. 0. 0. 0. 0. 14. 1. 0. 0. 0. 0. 0. 0. 0. 49. 5. 0.
      0. 2. 6. 3. 9. 167. 30. 0. 0. 0. 0. 0. 53. 75. 5. 0. 0. 0. 0. 0.
      18. 1. 0. 0. 0. 0. 0. 0. 1.</_>
    <_>
      0. 0. 0. 3. 0. 0. 0. 0. 0. 3. 32. 22. 0. 0. 0. 0. 1. 22. 29. 2. 0.
      0. 0. 0. 0. 2. 0. 0. 0. 0. 0. 0. 0. 0. 49. 58. 14. 0. 0. 0. 17.
      41. 136. 143. 81. 0. 0. 3. 143. 143. 114. 35. 4. 0. 0. 9. 23. 15.
      0. 0. 0. 0. 0. 0. 1. 0. 143. 115. 8. 0. 0. 1. 52. 11. 61. 143.
      101. 3. 17. 129. 143. 39. 8. 13. 8. 1. 6. 143. 19. 3. 0. 0. 0. 0.
      0. 0. 4. 4. 49. 41. 2. 0. 0. 1. 75. 31. 12. 16. 2. 0. 4. 72. 17.
      2. 0. 0. 0. 0. 1. 43. 0. 0. 0. 0. 0. 0. 0. 0.</_>
    <_>
      44. 4. 0. 4. 11. 0. 0. 4. 12. 11. 5. 49. 102. 0. 0. 0. 152. 76. 5.
      12. 11. 0. 0. 0. 152. 35. 0. 0. 0. 0. 0. 0. 41. 0. 0. 1. 22. 8. 2.
      24. 20. 2. 0. 12. 152. 31. 2. 4. 152. 35. 0. 3. 22. 5. 2. 9. 152.
      40. 0. 0. 0. 0. 0. 1. 58. 4. 0. 0. 13. 10. 1. 11. 5. 0. 0. 0. 83.
      107. 18. 8. 152. 2. 0. 0. 6. 28. 26. 57. 152. 3. 0. 0. 0. 0. 0.
      18. 49. 8. 1. 1. 3. 1. 0. 2. 1. 1. 1. 2. 21. 31. 4. 0. 121. 0. 0.
      0. 6. 19. 9. 32. 152. 0. 0. 0. 0. 0. 0. 28.</_>
    <_>
      0. 0. 24. 16. 0. 0. 0. 0. 0. 5. 156. 140. 0. 0. 0. 1. 2. 64. 156.
      15. 0. 0. 0. 2. 1. 116. 156. 0. 0. 0. 0. 0. 3. 4. 24. 10. 0. 0. 0.
      1. 74. 28. 153. 85. 0. 0. 3. 33. 27. 49. 115. 8. 0. 0. 13. 68. 7.
      94. 102. 2. 0. 0. 2. 7. 5. 1. 0. 0. 0. 3. 11. 5. 126. 23. 1. 0. 0.
      34. 53. 37. 50. 38. 3. 9. 2. 4. 4. 17. 1. 6. 26. 31. 5. 0. 1. 2.
      0. 0. 0. 0. 0. 15. 13. 0. 6. 5. 0. 0. 11. 156. 64. 3. 10. 31. 6.
      5. 9. 113. 7. 2. 1. 7. 9. 14. 12. 9. 3. 2.</_>
    <_>
      12. 24. 11. 104. 23. 0. 1. 4. 172. 150. 2. 2. 1. 0. 0. 13. 98. 30.
      0. 0. 0. 0. 0. 1. 0. 0. 0. 0. 0. 0. 0. 0. 59. 14. 7. 35. 0. 0. 6.
      17. 172. 20. 0. 0. 0. 0. 0. 72. 172. 6. 0. 0. 0. 0. 0. 16. 1. 0.
      0. 0. 0. 0. 0. 0. 37. 6. 0. 1. 3. 2. 21. 20. 172. 56. 0. 0. 1. 0.
      0. 21. 172. 16. 0. 0. 0. 0. 0. 6. 1. 0. 0. 0. 0. 0. 0. 0. 28. 1.
      0. 3. 14. 1. 1. 8. 172. 3. 0. 1. 1. 0. 0. 85. 112. 1. 0. 0. 0. 0.
      0. 23. 1. 0. 0. 0. 0. 0. 0. 0.</_>
    <_>
      4. 4. 14. 28. 16. 2. 4. 25. 43. 17. 5. 0. 0. 0. 8. 116. 31. 2. 0.
      0. 0. 0. 59. 136. 1. 0. 0. 0. 0. 17. 136. 26. 64. 2. 0. 5. 13. 1.
      6. 43. 136. 9. 0. 0. 0. 0. 17. 136. 24. 1. 0. 0. 0. 0. 78. 136. 0.
      0. 0. 0. 0. 16. 117. 26. 38. 3. 0. 0. 1. 3. 136. 51. 136. 25. 0.
      0. 0. 0. 47. 136. 91. 8. 0. 0. 0. 0. 3. 46. 1. 0. 0. 0. 0. 1. 2.
      1. 0. 0. 0. 0. 0. 6. 136. 24. 16. 0. 0. 0. 0. 0. 92. 128. 11. 0.
      0. 0. 0. 0. 2. 27. 0. 0. 0. 0. 0. 0. 0. 1.</_>
    <_>
      0. 0. 0. 0. 0. 0. 0. 0. 0. 0. 0. 2. 6. 0. 0. 0. 16. 2. 0. 1. 2. 0.
      0. 0. 5. 0. 0. 0. 0. 0. 0. 0. 0. 0. 0. 7. 10. 0. 0. 0. 16. 4. 1.
      116. 154. 0. 0. 0. 154. 14. 2. 34. 38. 0. 0. 14. 71. 1. 0. 0. 0.
      0. 0. 4. 0. 0. 0. 6. 18. 1. 0. 0. 35. 14. 1. 90. 154. 15. 0. 0.
      154. 117. 1. 20. 46. 2. 0. 11. 63. 43. 3. 0. 0. 0. 0. 3. 0. 0. 0.
      0. 6. 4. 0. 0. 5. 9. 0. 3. 154. 154. 0. 0. 64. 154. 15. 2. 61. 77.
      0. 0. 15. 154. 55. 0. 0. 0. 0. 0.</_>
    <_>
      0. 0. 0. 66. 134. 0. 0. 0. 3. 11. 8. 98. 136. 0. 0. 0. 29. 31. 5.
      4. 1. 0. 0. 2. 6. 1. 0. 3. 21. 4. 1. 2. 0. 0. 0. 68. 146. 0. 0. 0.
      9. 21. 21. 108. 146. 0. 0. 0. 108. 84. 17. 11. 3. 0. 0. 2. 22. 8.
      1. 12. 38. 1. 0. 0. 0. 0. 0. 28. 146. 3. 0. 0. 31. 3. 1. 44. 146.
      3. 1. 13. 146. 13. 2. 6. 8. 0. 0. 37. 20. 5. 3. 37. 23. 0. 0. 1.
      0. 0. 0. 2. 146. 10. 0. 0. 20. 0. 0. 2. 146. 34. 8. 35. 68. 0. 0.
      2. 7. 2. 2. 64. 3. 0. 0. 18. 34. 1. 0. 2.</_>
    <_>
      5. 7. 8. 15. 100. 79. 45. 12. 6. 7. 17. 7. 7. 5. 20. 20. 8. 33.
      19. 1. 0. 1. 14. 5. 8. 124. 77. 1. 0. 1. 0. 1. 0. 2. 4. 34. 163.
      76. 0. 0. 2. 12. 57. 81. 32. 5. 1. 1. 44. 75. 49. 10. 1. 1. 1. 5.
      19. 13. 5. 0. 0. 2. 1. 1. 0. 0. 1. 12. 163. 163. 1. 0. 3. 2. 6.
      30. 69. 58. 35. 20. 75. 13. 3. 3. 1. 4. 24. 55. 38. 4. 0. 0. 0. 0.
      0. 7. 0. 0. 0. 0. 163. 163. 1. 0. 0. 0. 0. 0. 88. 163. 16. 15. 13.
      7. 0. 0. 1. 3. 8. 19. 15. 19. 0. 0. 0. 0. 0. 2.</_>
    <_>
      0. 0. 0. 2. 17. 1. 0. 0. 7. 0. 0. 1. 37. 8. 3. 14. 172. 1. 0. 0.
      3. 3. 3. 160. 172. 0. 0. 0. 0. 0. 0. 67. 0. 0. 0. 0. 16. 6. 0. 0.
      69. 0. 0. 0. 25. 10. 1. 18. 172. 2. 0. 0. 0. 0. 1. 169. 89. 1. 0.
      0. 0. 0. 0. 74. 0. 0. 0. 3. 8. 3. 0. 0. 82. 1. 0. 0. 11. 11. 2. 8.
      172. 20. 0. 0. 0. 0. 0. 8. 113. 7. 0. 0. 0. 0. 0. 2. 0. 0. 1. 4.
      2. 0. 0. 0. 55. 2. 0. 1. 3. 1. 0. 2. 172. 23. 0. 0. 0. 0. 0. 1.
      102. 8. 0. 0. 0. 0. 0. 0.</_>
    <_>
      12. 4. 0. 0. 2. 8. 1. 1. 81. 36. 0. 1. 6. 7. 1. 0. 176. 120. 0. 0.
      0. 0. 0. 0. 57. 18. 0. 0. 0. 0. 0. 0. 8. 2. 0. 4. 12. 85. 6. 1.
      82. 18. 3. 20. 19. 4. 0. 4. 176. 45. 1. 1. 0. 0. 0. 10. 93. 9. 0.
      0. 0. 0. 0. 0. 0. 0. 0. 1. 39. 176. 5. 0. 68. 12. 1. 5. 21. 108.
      7. 17. 176. 45. 0. 0. 0. 2. 1. 20. 17. 4. 0. 0. 0. 0. 0. 0. 0. 0.
      0. 0. 7. 176. 23. 0. 4. 6. 0. 0. 3. 176. 39. 0. 7. 10. 0. 0. 0. 9.
      1. 0. 0. 0. 0. 0. 0. 0. 0. 0.</_>
    <_>
      44. 1. 8. 76. 8. 1. 20. 144. 144. 36. 0. 0. 1. 0. 22. 126. 144.
      71. 0. 0. 0. 0. 0. 5. 4. 3. 0. 0. 0. 0. 0. 0. 46. 0. 0. 1. 0. 0.
      6. 144. 144. 25. 0. 0. 0. 0. 17. 68. 144. 81. 0. 0. 0. 0. 0. 7.
      25. 7. 0. 0. 0. 0. 0. 0. 16. 0. 0. 0. 0. 0. 6. 118. 90. 1. 0. 0.
      0. 1. 23. 63. 144. 6. 0. 0. 0. 0. 0. 57. 31. 1. 0. 0. 0. 0. 0. 5.
      6. 0. 0. 0. 3. 3. 8. 59. 83. 0. 0. 0. 7. 5. 7. 53. 144. 0. 0. 0.
      0. 0. 0. 79. 11. 0. 0. 0. 0. 0. 0. 4.</_>
    <_>
      0. 0. 5. 125. 47. 14. 1. 0. 17. 0. 0. 6. 30. 46. 26. 22. 166. 0.
      0. 0. 1. 4. 10. 166. 115. 0. 0. 0. 0. 0. 0. 57. 0. 0. 1. 12. 29.
      16. 0. 0. 100. 4. 0. 14. 63. 6. 0. 15. 166. 13. 0. 1. 1. 0. 0.
      126. 72. 3. 0. 0. 0. 0. 0. 25. 0. 0. 0. 1. 43. 22. 0. 0. 94. 17.
      0. 2. 75. 16. 0. 2. 166. 165. 3. 0. 1. 1. 0. 3. 28. 27. 1. 0. 0.
      0. 0. 0. 0. 0. 0. 12. 43. 4. 0. 0. 11. 14. 3. 16. 64. 4. 0. 0. 48.
      134. 35. 8. 7. 0. 0. 0. 1. 12. 4. 0. 0. 0. 0. 0.</_>
    <_>
      3. 1. 0. 2. 8. 3. 0. 0. 62. 37. 2. 7. 14. 2. 0. 0. 184. 183. 1. 0.
      0. 0. 0. 9. 95. 33. 0. 0. 0. 0. 0. 2. 3. 11. 2. 14. 13. 1. 0. 0.
      81. 19. 11. 49. 30. 4. 1. 6. 184. 67. 3. 2. 0. 0. 0. 47. 112. 16.
      0. 0. 0. 0. 0. 8. 7. 19. 1. 3. 11. 38. 30. 3. 57. 10. 3. 10. 25.
      34. 32. 24. 184. 89. 1. 0. 0. 1. 5. 19. 11. 7. 0. 0. 0. 0. 0. 0.
      1. 1. 0. 1. 10. 184. 120. 2. 2. 4. 15. 9. 20. 110. 21. 3. 3. 6. 4.
      0. 0. 0. 1. 2. 0. 0. 0. 0. 0. 0. 0. 0.</_>
    <_>
      35. 5. 0. 0. 22. 15. 0. 1. 175. 59. 0. 0. 0. 1. 0. 2. 121. 20. 0.
      0. 0. 0. 0. 0. 1. 0. 0. 0. 0. 0. 0. 0. 34. 1. 1. 5. 30. 6. 0. 3.
      175. 17. 0. 0. 2. 1. 0. 29. 175. 7. 0. 0. 0. 0. 0. 13. 1. 0. 0. 0.
      0. 0. 0. 0. 30. 7. 12. 17. 7. 0. 0. 0. 175. 58. 1. 1. 1. 0. 0. 4.
      175. 23. 0. 0. 0. 0. 0. 2. 2. 0. 0. 0. 0. 0. 0. 0. 11. 23. 26. 3.
      0. 1. 1. 0. 175. 134. 6. 0. 0. 0. 0. 0. 147. 94. 1. 0. 0. 0. 0. 0.
      2. 5. 1. 0. 0. 0. 0. 0.</_>
    <_>
      54. 24. 0. 0. 3. 18. 2. 5. 151. 151. 0. 0. 0. 0. 0. 14. 61. 41. 0.
      0. 0. 0. 0. 2. 1. 1. 0. 0. 0. 0. 0. 0. 25. 7. 0. 0. 8. 18. 2. 7.
      151. 90. 1. 0. 0. 2. 1. 63. 140. 52. 6. 0. 0. 0. 0. 20. 1. 4. 1.
      0. 0. 0. 0. 0. 14. 4. 0. 1. 4. 5. 1. 1. 151. 151. 20. 0. 0. 1. 1.
      8. 36. 151. 97. 0. 0. 0. 0. 3. 0. 98. 28. 0. 0. 0. 0. 0. 0. 0. 0.
      0. 1. 2. 1. 0. 5. 48. 13. 0. 0. 1. 1. 0. 0. 151. 64. 0. 0. 0. 0.
      0. 0. 151. 83. 0. 0. 0. 0. 0.</_>
    <_>
      74. 155. 23. 0. 0. 0. 0. 0. 48. 155. 41. 0. 0. 0. 0. 0. 1. 58. 17.
      0. 0. 0. 0. 0. 0. 0. 0. 0. 0. 0. 0. 0. 46. 62. 1. 0. 0. 0. 1. 33.
      53. 155. 45. 0. 0. 2. 4. 19. 140. 155. 14. 0. 0. 0. 0. 7. 10. 3.
      0. 0. 0. 0. 0. 1. 29. 0. 0. 0. 0. 2. 6. 101. 88. 25. 1. 0. 6. 18.
      12. 49. 155. 75. 0. 0. 0. 0. 0. 59. 42. 9. 0. 0. 0. 0. 0. 8. 6. 0.
      0. 0. 2. 4. 10. 65. 28. 23. 0. 0. 28. 18. 3. 9. 155. 155. 0. 0. 4.
      1. 0. 2. 55. 73. 0. 0. 0. 0. 0. 0.</_>
    <_>
      3. 0. 0. 0. 2. 1. 1. 6. 7. 0. 1. 2. 4. 1. 1. 18. 19. 0. 0. 2. 2.
      1. 29. 170. 1. 0. 0. 0. 0. 0. 63. 170. 4. 5. 1. 1. 2. 1. 0. 0. 97.
      1. 0. 1. 4. 1. 0. 28. 170. 1. 0. 0. 0. 0. 5. 170. 39. 0. 0. 0. 0.
      0. 5. 107. 2. 2. 0. 2. 2. 0. 1. 2. 111. 25. 1. 4. 3. 0. 0. 1. 170.
      94. 0. 0. 0. 0. 0. 6. 66. 14. 0. 0. 0. 0. 0. 3. 1. 1. 1. 1. 3. 1.
      1. 2. 31. 21. 1. 2. 10. 4. 0. 0. 170. 151. 0. 0. 0. 0. 0. 0. 87.
      41. 0. 0. 0. 0. 0. 0.</_>
    <_>
      143. 36. 3. 1. 0. 0. 0. 36. 143. 74. 0. 0. 0. 0. 0. 94. 27. 9. 0.
      0. 0. 0. 0. 13. 1. 0. 0. 0. 0. 0. 0. 0. 108. 88. 0. 0. 0. 3. 1. 5.
      143. 143. 0. 0. 0. 0. 0. 10. 88. 26. 0. 0. 0. 0. 0. 1. 1. 0. 0. 0.
      0. 0. 0. 0. 91. 5. 0. 0. 9. 14. 2. 89. 143. 12. 0. 0. 0. 0. 0.
      143. 90. 2. 0. 0. 0. 0. 0. 25. 1. 0. 0. 0. 0. 0. 0. 0. 88. 0. 0.
      0. 12. 21. 19. 143. 139. 0. 0. 0. 0. 0. 0. 143. 15. 0. 0. 0. 0. 0.
      0. 16. 1. 0. 0. 0. 0. 0. 0. 0.</_>
    <_>
      19. 98. 3. 2. 5. 0. 0. 0. 59. 156. 1. 0. 0. 0. 0. 0. 27. 154. 0.
      0. 0. 0. 0. 0. 2. 9. 0. 0. 0. 0. 0. 0. 1. 18. 6. 7. 21. 0. 0. 0.
      44. 156. 13. 3. 2. 0. 0. 2. 156. 156. 0. 0. 0. 0. 0. 6. 45. 33. 0.
      0. 0. 0. 0. 1. 0. 0. 0. 3. 32. 8. 0. 0. 96. 29. 2. 2. 6. 4. 1. 22.
      156. 100. 0. 0. 0. 0. 0. 36. 83. 37. 0. 0. 0. 0. 0. 5. 0. 0. 0. 6.
      23. 3. 0. 0. 25. 36. 3. 4. 5. 1. 0. 1. 119. 156. 1. 0. 0. 0. 0. 1.
      82. 131. 0. 0. 0. 0. 0. 1.</_>
    <_>
      0. 0. 0. 0. 0. 0. 0. 0. 0. 0. 0. 0. 0. 0. 0. 0. 6. 1. 0. 0. 0. 0.
      0. 0. 2. 0. 0. 0. 0. 0. 0. 0. 0. 0. 1. 19. 5. 0. 0. 0. 27. 6. 7.
      160. 94. 0. 0. 1. 160. 17. 4. 26. 14. 0. 0. 19. 67. 2. 0. 0. 0. 0.
      0. 4. 0. 0. 4. 26. 2. 0. 0. 0. 63. 42. 22. 160. 46. 3. 0. 1. 160.
      160. 12. 18. 3. 0. 0. 20. 47. 106. 15. 0. 0. 0. 0. 3. 0. 0. 0. 2.
      1. 4. 2. 0. 9. 31. 5. 22. 18. 159. 30. 0. 30. 160. 29. 1. 4. 49.
      6. 0. 2. 160. 104. 0. 0. 0. 0. 0.</_>
    <_>
      9. 4. 1. 1. 0. 0. 0. 1. 16. 4. 6. 14. 1. 0. 0. 2. 184. 2. 1. 2. 0.
      0. 0. 136. 184. 2. 0. 0. 0. 0. 0. 153. 9. 5. 2. 9. 7. 1. 0. 1. 65.
      16. 17. 46. 16. 2. 0. 6. 184. 54. 4. 2. 0. 0. 0. 141. 184. 19. 0.
      0. 0. 0. 0. 61. 7. 1. 1. 2. 13. 18. 6. 8. 47. 9. 2. 12. 26. 30.
      39. 22. 184. 72. 1. 0. 0. 0. 7. 18. 16. 8. 0. 0. 0. 0. 0. 1. 1.
      19. 33. 11. 34. 23. 3. 1. 2. 16. 8. 0. 0. 4. 19. 5. 1. 0. 0. 0. 0.
      0. 3. 2. 0. 0. 0. 0. 0. 0. 0. 0.</_>
    <_>
      19. 1. 1. 5. 7. 9. 2. 4. 162. 1. 0. 0. 0. 0. 0. 41. 162. 1. 0. 0.
      0. 0. 0. 24. 5. 0. 0. 0. 0. 0. 0. 1. 30. 1. 0. 0. 9. 21. 3. 15.
      162. 11. 0. 0. 0. 1. 1. 113. 162. 5. 0. 0. 0. 0. 0. 50. 2. 0. 0.
      0. 0. 0. 0. 2. 32. 3. 0. 0. 6. 12. 2. 5. 162. 72. 0. 0. 0. 1. 1.
      16. 162. 55. 0. 0. 0. 0. 0. 4. 2. 3. 0. 0. 0. 0. 0. 0. 13. 3. 0.
      0. 1. 3. 1. 3. 154. 135. 3. 0. 0. 0. 0. 5. 60. 162. 24. 0. 0. 0.
      0. 0. 1. 56. 9. 0. 0. 0. 0. 0.</_>
    <_>
      0. 0. 0. 12. 33. 0. 0. 0. 27. 0. 0. 10. 33. 1. 1. 31. 154. 0. 0.
      0. 2. 0. 1. 154. 74. 0. 0. 0. 0. 0. 0. 102. 0. 0. 0. 11. 40. 3. 1.
      0. 104. 12. 1. 6. 30. 4. 16. 43. 154. 34. 0. 0. 0. 0. 3. 117. 46.
      6. 0. 0. 0. 0. 0. 18. 6. 0. 0. 1. 14. 17. 12. 49. 34. 1. 0. 0. 6.
      5. 119. 154. 117. 7. 0. 0. 0. 0. 57. 154. 10. 2. 0. 0. 0. 0. 0. 2.
      44. 0. 0. 0. 2. 5. 6. 150. 70. 0. 0. 0. 0. 0. 19. 154. 2. 0. 0. 0.
      0. 0. 19. 38. 0. 0. 0. 0. 0. 0. 0. 0.</_>
    <_>
      55. 40. 0. 0. 3. 1. 0. 0. 156. 156. 0. 0. 0. 0. 0. 1. 72. 42. 0.
      0. 0. 0. 0. 1. 1. 1. 0. 0. 0. 0. 0. 0. 56. 7. 0. 1. 2. 0. 0. 4.
      156. 78. 2. 0. 0. 0. 0. 32. 142. 62. 9. 0. 0. 0. 0. 15. 2. 5. 1.
      1. 0. 0. 0. 0. 23. 19. 5. 2. 0. 0. 0. 1. 116. 156. 60. 0. 0. 0. 0.
      4. 78. 156. 63. 0. 0. 0. 0. 1. 23. 61. 2. 0. 0. 0. 0. 0. 0. 2. 4.
      7. 2. 0. 0. 0. 10. 49. 29. 8. 1. 0. 0. 0. 94. 156. 22. 1. 0. 0. 0.
      0. 26. 156. 14. 0. 0. 0. 0. 0.</_>
    <_>
      140. 64. 0. 0. 0. 0. 0. 27. 134. 128. 0. 0. 0. 0. 0. 57. 15. 12.
      0. 0. 0. 0. 0. 7. 0. 0. 0. 0. 0. 0. 0. 0. 93. 96. 0. 0. 0. 0. 0.
      3. 140. 140. 0. 0. 0. 0. 0. 6. 87. 19. 0. 0. 0. 0. 0. 1. 1. 0. 0.
      0. 0. 0. 0. 0. 87. 4. 0. 0. 0. 1. 1. 91. 140. 8. 0. 0. 0. 0. 0.
      140. 90. 1. 0. 0. 0. 0. 0. 18. 1. 0. 0. 0. 0. 0. 0. 0. 138. 0. 0.
      0. 2. 3. 1. 122. 133. 0. 0. 0. 0. 0. 0. 140. 14. 0. 0. 0. 0. 0. 0.
      15. 0. 0. 0. 0. 0. 0. 0. 0.</_>
    <_>
      0. 14. 146. 6. 0. 0. 0. 0. 0. 18. 61. 3. 0. 0. 0. 0. 1. 4. 2. 0.
      0. 0. 0. 0. 0. 0. 0. 0. 0. 0. 0. 0. 0. 28. 146. 7. 0. 0. 0. 0. 37.
      146. 143. 1. 0. 0. 0. 11. 146. 87. 12. 0. 0. 0. 0. 23. 21. 0. 0.
      0. 0. 0. 0. 3. 10. 4. 23. 10. 0. 0. 0. 10. 96. 22. 7. 1. 0. 0. 0.
      146. 146. 15. 0. 0. 0. 0. 0. 146. 25. 0. 0. 0. 0. 0. 0. 14. 14. 2.
      9. 4. 0. 0. 11. 146. 91. 0. 0. 0. 0. 0. 4. 146. 23. 0. 0. 0. 0. 0.
      0. 112. 1. 0. 0. 0. 0. 0. 0. 3.</_>
    <_>
      0. 0. 0. 0. 13. 5. 0. 0. 15. 0. 0. 0. 12. 10. 3. 23. 119. 0. 0. 0.
      0. 1. 3. 163. 123. 0. 0. 0. 0. 0. 0. 125. 0. 0. 0. 0. 9. 6. 1. 0.
      98. 2. 0. 0. 15. 9. 1. 15. 163. 4. 0. 0. 0. 0. 0. 133. 68. 0. 0.
      0. 0. 0. 0. 67. 0. 0. 0. 0. 3. 6. 1. 0. 99. 2. 0. 0. 6. 9. 2. 18.
      163. 29. 0. 0. 0. 0. 0. 16. 85. 19. 0. 0. 0. 0. 0. 1. 0. 0. 0. 0.
      3. 3. 0. 0. 47. 16. 0. 0. 1. 2. 1. 4. 155. 163. 6. 0. 0. 0. 0. 2.
      18. 163. 11. 0. 0. 0. 0. 0.</_>
    <_>
      2. 121. 107. 1. 0. 0. 0. 0. 5. 135. 141. 0. 0. 0. 1. 2. 1. 141.
      141. 0. 0. 0. 1. 1. 6. 141. 80. 0. 0. 0. 0. 0. 31. 31. 3. 0. 0. 0.
      0. 5. 90. 29. 14. 0. 0. 3. 11. 43. 11. 75. 28. 0. 1. 43. 21. 13.
      99. 141. 20. 0. 0. 7. 1. 0. 40. 3. 0. 0. 0. 15. 9. 7. 141. 19. 0.
      0. 0. 2. 3. 18. 37. 4. 0. 0. 3. 66. 10. 9. 34. 84. 2. 0. 1. 43. 7.
      1. 13. 0. 0. 0. 13. 141. 31. 11. 118. 2. 0. 0. 1. 7. 5. 32. 49. 2.
      0. 0. 0. 15. 6. 10. 1. 3. 0. 0. 0. 47. 16. 1.</_>
    <_>
      31. 47. 6. 8. 2. 1. 0. 0. 170. 170. 0. 0. 0. 0. 0. 0. 87. 34. 0.
      0. 0. 0. 0. 0. 0. 0. 0. 0. 0. 0. 0. 0. 33. 5. 1. 1. 1. 18. 9. 8.
      170. 56. 6. 0. 0. 1. 1. 33. 144. 45. 76. 1. 0. 0. 0. 3. 0. 3. 94.
      4. 0. 0. 0. 0. 17. 4. 1. 1. 1. 17. 11. 7. 142. 141. 78. 0. 0. 1.
      2. 14. 22. 69. 170. 6. 0. 0. 0. 1. 0. 7. 170. 16. 0. 0. 0. 0. 0.
      1. 8. 5. 0. 1. 0. 0. 1. 20. 28. 2. 0. 0. 0. 0. 0. 6. 71. 4. 0. 0.
      1. 0. 0. 0. 54. 6. 0. 1. 5. 2.</_>
    <_>
      2. 4. 1. 11. 18. 111. 17. 0. 125. 137. 0. 1. 1. 19. 9. 2. 152.
      147. 0. 0. 0. 0. 0. 0. 13. 6. 0. 0. 0. 0. 0. 0. 0. 0. 0. 0. 1.
      152. 104. 0. 101. 16. 0. 0. 6. 152. 80. 18. 152. 56. 0. 0. 0. 9.
      7. 18. 41. 7. 0. 0. 0. 0. 0. 0. 0. 0. 0. 0. 7. 104. 28. 0. 18. 0.
      0. 0. 32. 152. 49. 17. 152. 12. 0. 0. 1. 33. 25. 39. 16. 4. 0. 0.
      0. 0. 0. 0. 0. 0. 0. 0. 1. 6. 0. 0. 0. 0. 0. 0. 2. 37. 3. 0. 0. 0.
      0. 0. 0. 5. 2. 0. 0. 0. 0. 0. 0. 0. 0. 0.</_>
    <_>
      10. 0. 1. 3. 0. 5. 98. 150. 129. 3. 0. 0. 0. 9. 115. 107. 166. 17.
      0. 0. 0. 0. 1. 51. 14. 1. 0. 0. 0. 0. 0. 1. 35. 0. 0. 0. 0. 12.
      24. 108. 147. 5. 0. 0. 0. 27. 37. 33. 166. 49. 0. 0. 0. 0. 0. 10.
      47. 8. 0. 0. 0. 0. 0. 1. 3. 0. 0. 0. 0. 6. 18. 46. 95. 1. 0. 0. 0.
      12. 18. 34. 166. 11. 0. 0. 0. 0. 0. 42. 62. 3. 0. 0. 0. 0. 0. 4.
      0. 0. 0. 0. 0. 4. 19. 9. 77. 0. 0. 0. 0. 5. 13. 38. 166. 0. 0. 0.
      0. 0. 0. 62. 33. 1. 0. 0. 0. 0. 0. 6.</_>
    <_>
      0. 0. 23. 141. 22. 8. 66. 39. 9. 0. 0. 4. 5. 4. 135. 71. 27. 0. 0.
      0. 0. 0. 5. 42. 0. 0. 0. 0. 0. 0. 0. 0. 13. 0. 1. 4. 0. 3. 78.
      160. 87. 1. 0. 0. 0. 14. 154. 112. 160. 20. 0. 0. 0. 0. 6. 84. 39.
      4. 0. 0. 0. 0. 0. 2. 36. 0. 0. 0. 0. 6. 16. 134. 68. 1. 0. 0. 0.
      34. 40. 37. 160. 22. 0. 0. 0. 1. 3. 27. 85. 6. 0. 0. 0. 0. 0. 2.
      2. 0. 0. 0. 0. 3. 10. 50. 40. 0. 0. 0. 0. 12. 12. 23. 160. 0. 0.
      0. 0. 0. 1. 38. 69. 0. 0. 0. 0. 0. 0. 5.</_>
    <_>
      0. 0. 0. 0. 11. 147. 157. 4. 35. 0. 0. 0. 59. 157. 38. 20. 157. 0.
      0. 0. 5. 9. 2. 94. 84. 0. 0. 0. 0. 0. 0. 38. 0. 0. 0. 0. 56. 41.
      10. 0. 40. 0. 0. 0. 157. 131. 1. 3. 157. 4. 0. 0. 41. 14. 0. 31.
      89. 1. 0. 0. 0. 0. 0. 10. 0. 0. 0. 0. 30. 9. 0. 0. 16. 1. 0. 0.
      157. 76. 0. 0. 157. 13. 0. 0. 30. 15. 0. 2. 34. 2. 0. 0. 0. 0. 0.
      0. 0. 0. 0. 0. 0. 0. 0. 0. 0. 0. 0. 0. 1. 0. 0. 0. 0. 0. 0. 0. 0.
      0. 0. 0. 0. 0. 0. 0. 0. 0. 0. 0.</_>
    <_>
      82. 35. 1. 1. 21. 3. 0. 4. 145. 145. 79. 1. 0. 0. 0. 2. 16. 101.
      145. 132. 0. 0. 0. 0. 0. 0. 89. 145. 0. 0. 0. 0. 25. 20. 1. 0. 28.
      10. 1. 6. 145. 138. 11. 0. 1. 1. 0. 25. 73. 57. 71. 20. 0. 0. 0.
      2. 0. 0. 42. 32. 0. 0. 0. 0. 25. 4. 0. 1. 21. 7. 1. 9. 145. 93. 2.
      0. 0. 1. 0. 20. 37. 72. 61. 6. 0. 0. 0. 1. 0. 6. 62. 6. 0. 0. 0.
      0. 6. 4. 0. 0. 13. 4. 0. 1. 77. 75. 0. 0. 0. 1. 0. 1. 25. 73. 39.
      0. 0. 0. 0. 0. 0. 18. 51. 0. 0. 0. 0. 0.</_>
    <_>
      18. 0. 0. 0. 0. 0. 3. 21. 85. 3. 0. 0. 0. 3. 23. 50. 126. 4. 0. 0.
      0. 29. 131. 108. 5. 0. 0. 0. 0. 94. 148. 7. 22. 0. 0. 0. 0. 0. 0.
      12. 148. 14. 0. 0. 0. 0. 0. 25. 148. 27. 0. 0. 0. 1. 5. 39. 35. 2.
      0. 0. 0. 15. 36. 6. 25. 1. 0. 0. 0. 0. 0. 38. 76. 1. 0. 0. 0. 0.
      0. 148. 135. 2. 0. 0. 0. 0. 0. 148. 17. 0. 0. 0. 0. 0. 0. 12. 9.
      0. 0. 0. 0. 0. 42. 148. 30. 0. 0. 0. 0. 0. 3. 148. 8. 0. 0. 0. 0.
      0. 0. 80. 0. 0. 0. 0. 0. 0. 0. 2.</_>
    <_>
      0. 0. 3. 140. 140. 0. 0. 0. 18. 2. 1. 75. 133. 0. 0. 7. 49. 6. 0.
      1. 1. 1. 2. 24. 5. 3. 6. 20. 10. 2. 1. 3. 4. 2. 23. 140. 101. 9.
      0. 0. 85. 11. 12. 78. 21. 0. 0. 38. 33. 4. 6. 6. 4. 3. 9. 64. 1.
      0. 1. 19. 51. 8. 8. 8. 11. 6. 3. 32. 140. 61. 0. 0. 128. 66. 4. 5.
      16. 2. 0. 6. 34. 30. 23. 17. 3. 0. 0. 5. 36. 0. 4. 21. 12. 2. 11.
      86. 2. 2. 0. 0. 140. 140. 1. 0. 75. 48. 1. 0. 23. 42. 4. 2. 43.
      39. 8. 10. 3. 0. 0. 8. 140. 2. 1. 5. 1. 0. 0. 105.</_>
    <_>
      0. 0. 4. 90. 149. 6. 1. 1. 27. 20. 25. 27. 27. 5. 3. 38. 19. 15.
      21. 6. 0. 0. 22. 81. 21. 2. 2. 1. 0. 1. 29. 47. 7. 0. 0. 50. 149.
      3. 1. 5. 70. 3. 0. 3. 27. 3. 3. 135. 16. 2. 9. 5. 0. 0. 18. 149.
      1. 0. 19. 18. 4. 4. 27. 17. 16. 1. 0. 47. 149. 19. 1. 5. 149. 28.
      4. 2. 12. 4. 1. 25. 26. 20. 39. 39. 2. 2. 2. 11. 9. 3. 53. 40. 2.
      1. 2. 22. 8. 5. 6. 69. 79. 7. 1. 7. 71. 23. 3. 3. 3. 2. 6. 80. 13.
      7. 5. 11. 4. 27. 124. 89. 9. 1. 5. 8. 3. 21. 118. 149.</_>
    <_>
      59. 53. 5. 5. 3. 0. 0. 0. 56. 10. 6. 21. 21. 1. 0. 21. 168. 4. 0.
      0. 1. 0. 0. 167. 91. 0. 0. 0. 0. 0. 0. 53. 21. 90. 17. 2. 2. 30.
      16. 2. 113. 61. 43. 10. 3. 0. 2. 13. 168. 59. 1. 0. 0. 0. 0. 35.
      97. 6. 0. 0. 0. 0. 0. 11. 2. 9. 2. 0. 12. 168. 116. 5. 83. 13. 6.
      0. 3. 24. 31. 110. 168. 10. 0. 0. 0. 0. 0. 92. 89. 3. 0. 0. 0. 0.
      0. 3. 0. 0. 0. 0. 11. 60. 12. 0. 11. 0. 0. 0. 3. 9. 3. 14. 34. 0.
      0. 0. 0. 0. 0. 8. 6. 0. 0. 0. 0. 0. 0. 0.</_>
    <_>
      21. 63. 8. 0. 0. 0. 0. 0. 121. 156. 0. 0. 0. 0. 0. 0. 59. 128. 0.
      0. 0. 0. 0. 0. 3. 4. 0. 0. 0. 0. 0. 0. 1. 18. 16. 1. 0. 0. 0. 0.
      96. 156. 7. 0. 0. 0. 0. 2. 156. 156. 0. 0. 0. 0. 0. 8. 33. 14. 0.
      0. 0. 0. 0. 2. 1. 2. 16. 2. 0. 0. 0. 0. 156. 28. 5. 0. 0. 0. 0.
      17. 156. 67. 0. 0. 0. 0. 0. 35. 58. 13. 0. 0. 0. 0. 0. 3. 5. 3. 4.
      0. 0. 0. 0. 2. 114. 7. 0. 0. 0. 0. 0. 66. 156. 43. 0. 0. 0. 0. 1.
      92. 58. 10. 0. 0. 0. 0. 0. 12.</_>
    <_>
      88. 0. 0. 0. 0. 0. 0. 21. 162. 7. 0. 0. 0. 0. 0. 34. 162. 6. 0. 0.
      0. 0. 0. 23. 5. 0. 0. 0. 0. 0. 0. 1. 99. 1. 0. 0. 0. 0. 0. 50.
      162. 13. 0. 0. 0. 0. 0. 90. 161. 7. 0. 0. 0. 0. 0. 35. 4. 1. 0. 0.
      0. 0. 0. 1. 86. 4. 0. 0. 0. 0. 0. 43. 162. 73. 0. 0. 0. 0. 0. 32.
      160. 43. 0. 0. 0. 0. 0. 11. 4. 2. 0. 0. 0. 0. 0. 0. 59. 0. 0. 0.
      0. 0. 0. 44. 162. 3. 0. 0. 0. 0. 0. 102. 114. 3. 0. 0. 0. 0. 0.
      40. 2. 0. 0. 0. 0. 0. 0. 2.</_>
    <_>
      35. 11. 1. 12. 12. 1. 0. 4. 155. 61. 0. 0. 0. 0. 0. 37. 121. 20.
      0. 0. 0. 0. 0. 14. 2. 0. 0. 0. 0. 0. 0. 1. 41. 6. 0. 1. 22. 4. 1.
      17. 155. 41. 0. 0. 0. 0. 0. 98. 153. 14. 0. 0. 0. 0. 0. 33. 2. 1.
      2. 1. 0. 0. 0. 0. 49. 6. 0. 0. 12. 4. 1. 15. 155. 66. 1. 0. 0. 0.
      0. 51. 132. 35. 32. 12. 0. 0. 0. 8. 0. 1. 73. 45. 0. 0. 0. 0. 40.
      9. 0. 0. 2. 1. 1. 17. 155. 76. 38. 3. 0. 0. 0. 46. 36. 24. 155.
      62. 0. 0. 0. 4. 0. 0. 144. 80. 0. 0. 0. 0.</_>
    <_>
      19. 2. 9. 2. 0. 0. 17. 102. 85. 7. 2. 0. 0. 0. 70. 156. 11. 1. 0.
      0. 0. 0. 117. 156. 0. 0. 0. 0. 0. 0. 36. 66. 76. 16. 0. 0. 0. 0.
      8. 61. 156. 54. 0. 0. 0. 0. 3. 49. 94. 6. 0. 0. 0. 0. 6. 23. 0. 0.
      0. 0. 0. 0. 1. 1. 86. 15. 0. 0. 0. 0. 0. 38. 156. 8. 0. 0. 0. 0.
      0. 133. 91. 1. 0. 0. 0. 0. 0. 18. 0. 0. 0. 0. 0. 0. 0. 0. 51. 1.
      0. 0. 0. 0. 14. 156. 103. 0. 0. 0. 0. 0. 1. 156. 14. 0. 0. 0. 0.
      0. 0. 16. 0. 0. 0. 0. 0. 0. 0. 0.</_>
    <_>
      8. 3. 4. 51. 18. 0. 0. 0. 149. 7. 1. 8. 3. 0. 0. 16. 149. 0. 0. 0.
      0. 0. 0. 15. 2. 0. 0. 0. 0. 0. 0. 0. 25. 6. 5. 58. 15. 0. 0. 0.
      149. 26. 5. 7. 1. 0. 0. 32. 149. 40. 35. 0. 0. 0. 0. 17. 1. 17.
      11. 0. 0. 0. 0. 0. 36. 6. 1. 38. 21. 0. 0. 0. 149. 129. 43. 2. 1.
      0. 0. 3. 29. 149. 149. 0. 0. 0. 0. 1. 5. 149. 65. 0. 0. 0. 0. 0.
      22. 5. 0. 16. 8. 0. 0. 0. 55. 62. 17. 0. 0. 0. 0. 0. 1. 63. 75. 0.
      0. 0. 0. 0. 60. 149. 21. 0. 0. 0. 0. 0.</_>
    <_>
      2. 8. 23. 123. 21. 0. 0. 0. 122. 103. 30. 20. 0. 0. 0. 1. 58. 19.
      0. 0. 0. 0. 0. 0. 0. 0. 0. 0. 0. 0. 0. 0. 24. 7. 9. 135. 53. 0. 0.
      3. 135. 65. 10. 11. 1. 0. 0. 29. 104. 38. 10. 0. 0. 0. 0. 6. 0. 3.
      2. 0. 0. 0. 0. 0. 13. 48. 25. 49. 11. 0. 0. 1. 99. 135. 40. 0. 0.
      0. 0. 4. 16. 135. 135. 0. 0. 0. 0. 0. 0. 109. 66. 0. 0. 0. 0. 0.
      2. 43. 7. 2. 0. 52. 36. 0. 6. 99. 10. 0. 0. 9. 8. 1. 2. 114. 73.
      1. 0. 0. 0. 1. 0. 135. 130. 1. 0. 0. 7. 6.</_>
    <_>
      10. 2. 74. 160. 7. 0. 0. 1. 160. 2. 17. 58. 2. 0. 0. 90. 85. 0. 0.
      0. 0. 0. 0. 63. 0. 0. 0. 0. 0. 0. 0. 0. 47. 5. 11. 71. 13. 0. 0.
      1. 160. 11. 2. 1. 0. 0. 0. 43. 160. 3. 0. 0. 0. 0. 0. 23. 1. 0. 0.
      0. 0. 0. 0. 0. 43. 2. 0. 6. 3. 2. 5. 23. 160. 29. 0. 0. 0. 0. 0.
      53. 160. 13. 0. 0. 0. 0. 0. 8. 1. 0. 0. 0. 0. 0. 0. 0. 35. 0. 0.
      0. 1. 8. 26. 55. 160. 0. 0. 0. 0. 0. 0. 160. 78. 1. 0. 0. 0. 0. 0.
      36. 1. 0. 0. 0. 0. 0. 0. 0.</_>
    <_>
      1. 1. 0. 0. 15. 11. 0. 0. 106. 61. 0. 0. 3. 3. 0. 0. 168. 148. 0.
      0. 0. 0. 0. 0. 61. 29. 0. 0. 0. 0. 0. 0. 0. 0. 0. 2. 23. 7. 0. 0.
      101. 20. 0. 1. 10. 3. 0. 3. 168. 38. 0. 0. 0. 0. 0. 9. 141. 5. 0.
      0. 0. 0. 0. 3. 0. 0. 0. 17. 12. 0. 0. 0. 88. 17. 1. 5. 8. 1. 0.
      10. 168. 84. 0. 0. 0. 0. 0. 23. 122. 36. 0. 0. 0. 0. 0. 3. 0. 0.
      1. 17. 1. 0. 0. 0. 29. 23. 2. 7. 1. 0. 0. 0. 168. 132. 0. 0. 0. 0.
      0. 0. 141. 60. 0. 0. 0. 0. 0. 0.</_>
    <_>
      31. 11. 1. 19. 10. 0. 0. 4. 160. 67. 0. 1. 0. 0. 0. 36. 128. 22.
      0. 0. 0. 0. 0. 15. 2. 0. 0. 0. 0. 0. 0. 0. 41. 7. 1. 6. 23. 1. 1.
      15. 160. 43. 0. 0. 0. 0. 0. 95. 160. 14. 0. 0. 0. 0. 0. 35. 2. 0.
      1. 1. 0. 0. 0. 1. 47. 10. 0. 2. 19. 1. 0. 10. 160. 73. 0. 0. 0. 0.
      0. 54. 160. 25. 3. 3. 0. 0. 0. 17. 1. 0. 16. 43. 1. 0. 0. 0. 39.
      7. 0. 0. 7. 3. 1. 14. 160. 93. 9. 0. 0. 0. 0. 59. 66. 45. 94. 39.
      0. 0. 0. 14. 0. 0. 75. 134. 0. 0. 0. 0.</_>
    <_>
      44. 1. 0. 0. 0. 0. 11. 56. 133. 13. 0. 0. 0. 10. 108. 117. 18. 3.
      0. 0. 0. 88. 155. 18. 1. 1. 0. 0. 0. 69. 155. 2. 89. 2. 0. 0. 0.
      0. 0. 25. 155. 27. 0. 0. 0. 0. 2. 16. 101. 6. 0. 0. 0. 10. 33. 10.
      0. 0. 0. 0. 0. 22. 69. 0. 88. 0. 0. 0. 0. 0. 0. 14. 155. 0. 0. 0.
      0. 0. 0. 39. 104. 0. 0. 0. 0. 0. 0. 12. 0. 0. 0. 0. 0. 0. 0. 0.
      35. 0. 0. 0. 0. 0. 44. 91. 155. 0. 0. 0. 0. 0. 14. 142. 38. 0. 0.
      0. 0. 0. 0. 19. 0. 0. 0. 0. 0. 0. 0. 0.</_>
    <_>
      20. 48. 0. 0. 0. 0. 0. 0. 138. 138. 0. 0. 0. 0. 0. 0. 103. 108. 0.
      0. 0. 0. 0. 0. 5. 5. 0. 0. 0. 0. 0. 0. 11. 36. 1. 0. 0. 0. 0. 0.
      95. 138. 8. 0. 0. 0. 1. 9. 138. 138. 0. 0. 0. 0. 0. 13. 37. 8. 0.
      0. 0. 0. 0. 1. 29. 14. 0. 0. 0. 0. 0. 12. 86. 13. 2. 0. 0. 0. 8.
      138. 138. 11. 0. 0. 0. 0. 1. 138. 34. 0. 0. 0. 0. 0. 0. 9. 36. 1.
      0. 0. 0. 0. 1. 94. 119. 0. 0. 0. 0. 0. 1. 138. 43. 0. 0. 0. 0. 0.
      0. 127. 4. 0. 0. 0. 0. 0. 0. 4.</_>
    <_>
      0. 0. 1. 0. 7. 10. 1. 0. 22. 1. 7. 3. 4. 6. 11. 54. 28. 0. 1. 1.
      0. 0. 14. 88. 0. 0. 0. 0. 0. 0. 0. 0. 0. 0. 0. 0. 1. 20. 9. 1.
      194. 12. 0. 0. 1. 7. 9. 60. 200. 38. 0. 0. 0. 0. 4. 105. 17. 0. 0.
      0. 0. 0. 0. 4. 0. 0. 0. 0. 0. 15. 17. 4. 182. 6. 0. 0. 0. 2. 11.
      47. 200. 49. 0. 0. 0. 0. 0. 32. 81. 9. 0. 0. 0. 0. 0. 8. 0. 0. 0.
      0. 0. 8. 21. 9. 107. 2. 0. 0. 0. 0. 7. 55. 200. 26. 0. 0. 0. 0. 0.
      35. 109. 8. 0. 0. 0. 0. 0. 4.</_>
    <_>
      109. 7. 0. 0. 0. 0. 0. 17. 169. 69. 0. 0. 0. 0. 5. 12. 71. 16. 0.
      0. 0. 6. 43. 6. 0. 0. 0. 0. 0. 8. 59. 0. 109. 3. 0. 0. 0. 0. 0.
      13. 169. 34. 0. 0. 0. 0. 0. 16. 149. 10. 0. 0. 0. 0. 0. 7. 1. 0.
      0. 0. 0. 0. 1. 0. 86. 8. 0. 0. 0. 0. 2. 22. 169. 21. 0. 0. 0. 0.
      1. 55. 143. 4. 0. 0. 0. 0. 0. 14. 1. 0. 0. 0. 0. 0. 0. 0. 13. 0.
      0. 0. 0. 0. 81. 169. 111. 1. 0. 0. 0. 0. 35. 169. 38. 0. 0. 0. 0.
      0. 0. 36. 0. 0. 0. 0. 0. 0. 0. 0.</_>
    <_>
      25. 105. 0. 0. 0. 0. 0. 0. 44. 142. 0. 0. 0. 0. 0. 0. 24. 142. 0.
      0. 0. 0. 0. 0. 4. 6. 0. 0. 0. 0. 0. 0. 5. 58. 3. 0. 0. 0. 0. 0.
      47. 142. 12. 0. 0. 0. 0. 3. 142. 142. 1. 0. 0. 0. 0. 5. 39. 12. 0.
      0. 0. 0. 0. 0. 13. 23. 1. 0. 0. 0. 0. 1. 118. 21. 3. 0. 0. 0. 0.
      87. 142. 18. 0. 0. 0. 0. 0. 136. 49. 2. 0. 0. 0. 0. 0. 9. 26. 3.
      0. 0. 0. 0. 0. 17. 142. 0. 0. 0. 0. 0. 0. 142. 131. 0. 0. 0. 0. 0.
      0. 134. 10. 0. 0. 0. 0. 0. 0. 7.</_>
    <_>
      9. 2. 0. 1. 145. 33. 1. 4. 74. 9. 1. 0. 4. 1. 0. 53. 32. 2. 1. 0.
      0. 0. 11. 133. 2. 0. 2. 4. 1. 4. 46. 40. 22. 0. 0. 2. 145. 37. 1.
      7. 145. 5. 0. 0. 8. 2. 1. 112. 44. 4. 11. 15. 0. 0. 1. 102. 2. 1.
      24. 57. 4. 3. 4. 6. 24. 2. 0. 62. 145. 17. 1. 1. 145. 54. 6. 2. 8.
      1. 0. 11. 36. 26. 45. 34. 0. 0. 1. 28. 7. 0. 11. 25. 5. 7. 85. 87.
      7. 3. 0. 14. 10. 0. 0. 0. 67. 59. 4. 1. 1. 0. 0. 19. 62. 22. 12.
      4. 0. 0. 1. 145. 19. 0. 0. 0. 0. 0. 88. 145.</_>
    <_>
      0. 0. 0. 0. 0. 0. 0. 0. 0. 0. 0. 0. 0. 0. 0. 0. 0. 0. 0. 0. 0. 0.
      0. 0. 0. 0. 0. 0. 0. 0. 0. 0. 0. 0. 0. 5. 31. 0. 0. 0. 29. 5. 0.
      29. 160. 0. 0. 1. 160. 22. 0. 3. 22. 0. 0. 6. 30. 2. 0. 0. 0. 0.
      0. 1. 0. 0. 0. 33. 78. 0. 0. 0. 61. 11. 1. 106. 160. 0. 0. 5. 160.
      82. 1. 7. 32. 0. 0. 24. 51. 18. 4. 2. 0. 0. 0. 2. 0. 0. 0. 66. 87.
      0. 0. 0. 11. 18. 5. 143. 160. 0. 0. 0. 104. 160. 17. 19. 13. 0. 0.
      0. 23. 125. 83. 54. 0. 0. 0. 0.</_>
    <_>
      1. 0. 0. 0. 0. 0. 9. 19. 32. 1. 0. 0. 0. 0. 23. 107. 31. 1. 1. 0.
      0. 17. 154. 114. 1. 4. 2. 0. 0. 55. 154. 4. 9. 0. 0. 0. 0. 0. 12.
      33. 154. 6. 0. 0. 0. 0. 1. 62. 154. 19. 0. 0. 0. 4. 53. 70. 22. 1.
      0. 0. 0. 32. 150. 9. 9. 0. 0. 0. 0. 0. 7. 28. 154. 2. 0. 0. 0. 0.
      0. 26. 154. 6. 0. 0. 0. 0. 0. 12. 43. 0. 0. 0. 0. 0. 2. 2. 10. 0.
      0. 0. 0. 1. 4. 14. 135. 0. 0. 0. 0. 0. 2. 40. 154. 0. 0. 0. 0. 0.
      0. 48. 26. 0. 0. 0. 0. 0. 0. 4.</_>
    <_>
      33. 0. 0. 0. 3. 2. 3. 39. 29. 35. 9. 7. 14. 3. 3. 14. 80. 42. 1.
      0. 0. 0. 0. 19. 140. 138. 0. 0. 0. 0. 0. 6. 94. 6. 0. 0. 7. 9. 3.
      14. 46. 21. 3. 5. 68. 51. 5. 8. 140. 36. 1. 1. 3. 4. 2. 26. 140.
      27. 0. 0. 0. 0. 0. 44. 132. 5. 0. 0. 1. 6. 4. 21. 35. 0. 0. 0. 17.
      78. 66. 42. 101. 1. 0. 0. 1. 13. 46. 114. 140. 0. 0. 0. 0. 1. 2.
      76. 92. 2. 0. 0. 7. 32. 5. 16. 83. 7. 1. 0. 0. 3. 34. 39. 17. 2.
      3. 4. 4. 5. 39. 55. 140. 0. 0. 0. 1. 1. 2. 140.</_>
    <_>
      0. 0. 25. 163. 40. 1. 0. 0. 31. 1. 0. 59. 79. 13. 2. 20. 86. 1. 0.
      0. 1. 1. 1. 41. 3. 0. 0. 0. 0. 0. 0. 1. 0. 2. 38. 82. 24. 1. 0. 0.
      112. 15. 3. 41. 66. 6. 13. 35. 163. 36. 0. 1. 1. 0. 3. 72. 40. 2.
